<?xml version="1.0"?>
<opencv_storage>
<opencv_ml_svm>
  <format>3</format>
  <svmType>C_SVC</svmType>
  <kernel>
    <type>LINEAR</type></kernel>
  <C>1.</C>
  <term_criteria><iterations>100</iterations></term_criteria>
  <var_count>50</var_count>
  <class_count>6</class_count>
  <class_labels type_id="opencv-matrix">
    <rows>6</rows>
    <cols>1</cols>
    <dt>i</dt>
    <data>
      0 1 2 3 4 5</data></class_labels>
  <sv_total>15</sv_total>
  <support_vectors>
    <_>
      -0.060717307 0.0568314269 0.0266994871 -0.0901855454 -0.0375034846
      0.106045656 0.152611136 0.0504263043 -0.181775436 0.047748439
      0.0612315275 0.158574909 -0.0221966915 0.0557927564 -0.138740346
      0.0838451535 0.052968476 0.0312046167 -0.0934805423 0.0392105989
      0.0146386167 0.0276172403 -0.0631127283 -0.0113900956 0.067979604
      0.0257340688 0.147719473 0.00736379996 -0.00454696734 0.0257162321
      -0.0629300401 0.019182859 0.20739767 0.0333414264 0.033232484
      0.114822701 0.0560407601 0.0609299503 -0.000360395119
      -0.00583974225 0.0246088095 0.0462154523 0.0482810214 0.0238594376
      -0.0457625091 -0.0208416078 0.00702434173 -0.0326682851
      0.0322109945 -0.0575583801</_>
    <_>
      0.0206082705 0.0140139842 0.119378872 0.0739867389 -0.137287289
      0.236307189 0.356045365 0.0966253206 0.0666598901 -0.279425442
      -0.216958687 0.191296741 0.0696171597 0.0555507094 0.0963980928
      0.209853217 0.0493191071 0.0422037728 -0.0662649274 -0.216718256
      -0.126272708 -0.0506863669 0.0697936937 0.272148728 0.089216873
      -0.0201119948 0.166642517 -0.0376457423 -0.0428481288 -0.108350076
      -0.229570091 0.103688054 -0.0854816213 0.169112518 0.117279232
      0.196179166 -0.0219917614 -0.0866949111 -0.0793849528 -0.112983629
      0.20519653 -0.202437803 0.117587335 -0.175949559 0.167417422
      0.0867763609 0.0296557266 -0.137317076 -0.0714986324 0.0341012552</_>
    <_>
      0.0175331794 0.090204224 -0.000954159419 -0.120960787 -0.183663517
      0.265966207 0.327710152 -0.000435617054 -0.274725109 -0.0911219418
      -0.186844379 0.0612314716 0.0605726838 0.0835018381 -0.248798996
      0.270089328 0.0821741521 0.107601836 -0.0838407278 -0.013110321
      -0.0418261029 -0.0412381142 -0.00193451636 0.0941815004
      0.155102417 -0.0528162196 0.0284501351 -0.147899479 0.163157478
      0.0456533842 0.0102166142 0.0187091902 0.12127582 -0.00167534093
      0.0585752279 0.0382519551 0.015720332 0.0899826214 0.0177025851
      0.00305003393 0.052340813 -0.0546971746 -0.00766449096
      -0.0134803466 -0.0193276126 -0.00499211205 -0.0459073633
      -0.0708067492 0.0131972097 0.00373899774</_>
    <_>
      -0.0722702742 -0.0666417778 0.102763541 0.272549957 0.116077453
      -0.0534349829 -0.0293943323 -0.0398845077 0.142970145
      -0.0412992537 0.0322953165 -0.149279699 -0.145907 0.0143457903
      0.0234945696 -0.01175706 0.207703367 0.0146554559 -0.200436205
      0.173486426 0.0156328082 -0.0105051901 -0.0163140744 0.192217603
      0.0585347228 0.0533327423 0.132007003 -0.0993968397 -0.0436714143
      0.0574247725 0.0477342159 0.102429025 0.229710892 -0.168595076
      -0.0683173314 0.217554212 -0.0769140646 0.000158293071
      0.0611655675 0.0738601461 0.0922551975 -0.153658971 0.0435712002
      -0.149451673 -0.0244840253 0.0260299109 -0.14927581 -0.104795121
      -0.0630110949 -0.104146637</_>
    <_>
      -0.0434633046 -0.0197027344 0.256026 0.257742345 -0.00848409347
      0.203400165 0.375012934 -0.0102045033 -0.0971626267 -0.167221159
      -0.159338713 0.0273242388 -0.11950019 0.0541597866 -0.17334938
      0.345240057 -0.0983303264 -0.0478083268 -0.0681530237 0.0264047291
      0.0606065392 -0.00311262347 0.033174213 0.206539631 -0.00388626079
      -0.188303441 -0.0106035778 -0.0587922446 -0.0195142906
      -0.108551607 0.00834237318 0.157131433 0.0813694075 0.0283599868
      0.235787049 -0.0198135953 -0.0431860387 -0.0137316724
      -0.0781580955 -0.125530258 0.170097664 -0.185761645 0.262227327
      -0.0769684166 -0.0517413132 -0.0490266047 -0.079834491
      -0.322849035 -0.022711182 0.0277770497</_>
    <_>
      -0.0277607907 -0.0748152137 0.00549598644 0.0665139109
      0.0184947681 0.0585326664 0.0918781161 0.0103653129 0.0249564275
      -0.318802714 -0.273073584 0.00440077204 -0.0899549499 0.0896503925
      0.276158094 0.0554663986 0.0313934349 0.0420127884 -0.100085229
      -0.178486913 -0.146795958 -0.0995255634 0.0895272866 0.270509303
      0.127910689 -0.199232116 -0.0228457656 -0.139474779 -0.149542287
      -0.133684069 -0.101957083 0.144546613 -0.357117832 0.259834021
      -0.035495162 0.0532340668 0.00596763706 -0.024990689 -0.0653615743
      -0.204546794 0.0534591749 -0.228168041 -0.0209941138 -0.0852482319
      0.173814297 0.251724064 0.00500686467 -0.00613677921 0.130434051
      0.0458006524</_>
    <_>
      -0.0631679222 0.0593420826 -0.0440078862 -0.143345326 -0.14067778
      0.354615152 0.287329823 -0.0232934896 -0.236832261 -0.16248849
      -0.214028165 -0.100541092 0.0359602012 0.14449127 -0.134358317
      0.263872325 0.120142937 0.102421671 -0.110754155 -0.14608483
      -0.0197743569 -0.0505466498 -0.00451618386 0.141368315 0.141695097
      -0.126051649 -0.0917111114 -0.326249659 0.105242886 0.0152545664
      0.0245993026 0.0720111132 -0.123906516 -0.0688541606 -0.0249701105
      -0.0319096744 0.0272811409 0.0859802589 -0.136284739 0.0191588495
      -0.0200519077 -0.0834597126 0.0889009684 -0.0993513241 0.145510957
      -0.0806117132 -0.0819141269 0.0486880355 0.159466088 0.0698727444</_>
    <_>
      0.105197906 -0.240871459 0.0926587507 0.527476251 0.171687618
      -0.120586038 -0.118783854 -0.0796635672 0.331714749 -0.1958175
      0.0306724459 -0.179287136 -0.114477135 -0.110476188 0.281851381
      -0.10678716 0.218543395 0.120849766 -0.269913554 0.0833469108
      -0.0609503947 -0.022791259 0.110276319 0.2371822 0.124208085
      -0.0332913473 -0.156759083 -0.0402378365 -0.146913886 -0.172109753
      -0.00291305291 0.0587910414 -0.147934526 -0.0616123937
      0.0495183021 0.0130491601 0.00655774586 -0.0210851394 0.132685974
      0.0697445944 -0.032578446 -0.141254798 0.0129186884 -0.115650006
      0.0969753042 -0.0542896353 -0.144695014 -0.0534877516
      -0.0679828227 -0.104595378</_>
    <_>
      0.0542490929 -0.0934516415 0.257278383 0.399986804 0.176536173
      -0.0157114565 0.153655574 -0.0552404784 -0.00117596111
      -0.137643814 -0.125887543 -0.160634562 -0.0669455975 0.032480929
      0.235177249 0.148555592 0.0623651035 0.0657933205 -0.0389558561
      -0.072933279 -0.029961098 0.0393955037 0.125409469 0.133312896
      -0.0396415628 -0.236423224 -0.250513136 -0.14208293 0.100756727
      -0.141319424 -0.102913655 0.129017681 -0.152903065 0.104300812
      0.0535296425 -0.0569528192 -0.0512322709 0.0476646274 0.0417728312
      0.0266573001 0.143964872 -0.0926301703 0.0170997586 -0.102333404
      0.0989465564 -0.00888808444 -0.0221868046 -0.0247533359
      0.0664343387 -0.0106832646</_>
    <_>
      -0.0588126034 0.142831743 -0.0904938802 -0.119180009 -0.124347895
      0.248816207 0.0244505592 0.0359942913 -0.301704496 0.00228662626
      -0.206840813 -0.200238228 -0.0797832236 0.0127651701 -0.450034738
      0.103900276 0.0142756607 0.135301203 -0.0231709275 0.0389941297
      0.0860000029 -0.0909146816 0.0331095383 -0.0260403473
      -0.0164678358 0.162510008 -0.10296385 -0.136667758 0.284952044
      0.164610505 0.122847237 -0.14231655 0.188859716 -0.108698092
      0.0323126465 -0.159523726 0.179276541 0.11761418 0.0876655877
      0.121453747 -0.147997648 0.11635723 0.0620946847 0.0550578572
      -0.108372301 -0.337730229 -0.181291863 -0.0242106635 -0.0332319774
      -0.147310391</_>
    <_>
      -0.00972518418 0.0282400604 0.0204842035 0.211459115 0.132202283
      -0.21134083 -0.349325001 -0.0887224749 0.222693712 0.348920196
      0.116995282 -0.0712215528 -0.0273322519 -0.0949704871
      0.00620535947 -0.247081429 0.120681554 -0.0652491748 -0.0456306487
      0.161850944 0.15404813 0.0512945801 -0.0324562453 -0.0859555677
      -0.0818740651 0.249360651 -0.116755232 -0.0922704712 -0.0701003745
      0.114703484 0.147441536 -0.1125523 0.147676513 -0.125444978
      -0.034542352 -0.0952940509 -0.121281981 0.0794552118 0.160383672
      0.134151876 -0.107834056 0.106675297 0.0143166482 0.0463095158
      -0.106818102 -0.187969863 -0.0692035779 0.0408162363
      -0.000219825539 -0.176171035</_>
    <_>
      0.0505216159 -0.0222778656 0.232004032 0.337510526 0.319748044
      0.0280012861 -0.133283556 -0.173114389 0.0638471842 0.308554053
      0.0270527117 -0.0134563707 -0.0580035895 -0.0779069439
      -0.154777035 0.00935115851 -0.149576724 0.0628600121 0.0335445032
      0.102782249 -0.0665552691 -0.0844269618 -0.121889681 -0.149914458
      -0.192399174 0.306131363 -0.289326906 -0.0831549987 -0.00892558973
      0.0902677998 -0.0412974022 0.0114533212 0.110158607 -0.127628967
      0.180245146 -0.369006366 -0.0145681789 -0.0566483103 0.128778473
      0.108072154 -0.0557181425 0.0733301044 0.149786651 0.106665067
      -0.255937874 -0.14028722 -0.0712143928 -0.0989713892 -0.116767757
      -0.00719182333</_>
    <_>
      -0.0205206312 -0.158996567 0.10675396 0.32615456 0.241883069
      -0.328663081 -0.273485035 0.0051484108 0.450156212 0.0891084149
      0.189869612 0.055867821 0.0201001726 -0.133681595 0.203691959
      -0.154121891 0.0265485477 -0.057011053 0.0555758029 0.0756036118
      -0.0344790444 0.0656845346 0.0213320777 0.0273525696 -0.0842981562
      0.053822387 0.0520168357 0.13786912 -0.198176384 -0.103020467
      -0.0352624841 -0.0163917411 -0.0335491411 0.0255415086
      -0.137423068 -0.000142626319 -0.0827232301 -0.0936942473
      0.0499523282 0.0242097359 -0.0864551514 0.0467629321 -0.0184323024
      0.027626399 -0.0203724429 0.046263434 0.00856312551 -0.0171572678
      -0.0180860907 -0.0556392968</_>
    <_>
      0.0450303182 -0.121548846 0.153652787 0.424368531 0.305643141
      -0.294741988 -0.177783415 -0.0962530226 0.223251149 0.127357319
      0.210966811 -0.0032772983 -0.0128049655 -0.0658939257 0.310196877
      -0.030113373 -0.0843874514 -0.0782930106 0.138280004 0.00941728614
      -0.116294742 -0.00337489415 0.0353904888 0.00749962544
      -0.179348975 0.00228158408 -0.080703333 0.0661704615 -0.108911157
      -0.156364545 0.0206509251 0.100040853 -0.0192976948 0.17037119
      0.00125649455 0.0210173149 -0.145535827 -0.0592903271 0.0525783636
      -0.074510403 0.0647975579 -0.086701721 0.0651024431 -0.0264365003
      -0.00778869726 0.072308585 0.0737365112 -0.114288494 0.00837816112
      -0.0246222764</_>
    <_>
      -0.0230979733 0.00414501177 0.221742004 0.166917652 0.116864316
      0.189728513 0.260875404 0.0406625383 -0.116887175 -0.171512201
      -0.326691508 -0.143197179 -0.0114213591 -0.0123134824 -0.258278608
      0.550484478 -0.327750921 -0.00167554559 0.150307372 -0.0538380109
      -0.0279025193 -0.0595424473 0.00184523105 -0.0565709881
      -0.117571935 -0.223020107 -0.162532613 -0.131999552 0.21566759
      -0.0371519104 -0.174115643 0.0252288487 0.102172226 0.0819997415
      0.204821378 -0.172115654 -0.116185516 0.104471467 0.010175704
      -0.124136649 0.256609052 -0.084891431 0.102503128 -0.13913101
      -0.126640826 0.0466353558 -0.0124392537 -0.109053977 -0.121006139
      0.190783501</_></support_vectors>
  <uncompressed_sv_total>294</uncompressed_sv_total>
  <uncompressed_support_vectors>
    <_>
      7.47270393 -0.490921348 0.300243229 -2.30870295 2.80033088
      0.897892952 -4.34060955 -4.74624395 -2.07928014 -0.412649542
      1.25847995 -2.28869534 -1.74883163 -0.245532408 0.69424963
      1.28203213 -2.94841385 0.76552248 0.0955066979 1.60898936
      1.02509379 -0.66064775 0.543766618 -0.594223499 -0.424002677
      -0.069075413 0.177520052 0.922455072 1.607059 0.12557058 1.023965
      0.00237800134 0.212030128 -0.0440321639 0.673382521 -0.641010761
      0.345867217 0.972656727 -0.795406461 0.740901113 0.515776932
      -0.220384389 -0.50118351 0.697320819 0.120649785 -0.254363507
      -0.395023614 -0.336204201 -0.36062485 0.887780547</_>
    <_>
      -5.66522455 -0.265378356 2.18319845 -0.823953211 2.1340661
      2.60028911 1.85252178 -1.00228477 -0.262684673 -0.465261579
      1.93868268 -0.556804061 2.00214314 0.322406709 -0.257303447
      0.496829987 0.0164902043 0.0506499 -1.10646296 0.793529034
      -0.446593851 0.517890036 -0.289835036 -1.20981574 0.254118741
      -0.510123491 0.305940479 -0.343321919 0.123149373 -0.208624721
      0.272870064 -0.0877780989 0.0620578192 0.756652176 -0.226730421
      -0.545298576 -0.60306865 0.877802253 0.489995837 -0.38187319
      -0.373233557 -0.219537273 0.341297239 0.353645295 0.0282300673
      -0.116327904 -0.398295879 0.122273952 0.214679465 0.400644749</_>
    <_>
      -8.40885353 -1.96359134 4.76420212 -4.4158597 0.363880605
      -0.123336658 1.7010293 -1.46035707 1.7381072 0.0157516152
      0.513741314 0.2461209 0.996169388 -0.354103297 -1.10335135
      1.52936757 0.744342327 1.31054568 0.573543668 -0.624045432
      0.720402002 0.559151351 -0.128013521 0.239755496 -0.313907593
      0.00592235709 -0.485365361 -0.0469839536 0.199930251 0.616428971
      -0.572979152 -0.345996022 -0.0347423628 -0.181064755 0.443489581
      0.0305309538 -0.300608724 0.865417957 -0.121100537 0.199794173
      0.48722291 -0.257158756 -0.622654259 -0.0786935836 0.198653832
      -0.0331383236 0.858430207 -0.191227511 -0.238116458 -0.165407404</_>
    <_>
      2.69722605 -2.21312451 1.48686385 1.97824824 0.515447497
      -1.04739773 -1.20390046 0.333972871 -0.977310359 1.51426232
      0.713156343 0.445223004 -1.14518237 -0.633585691 -1.13881373
      0.723728299 -0.407039016 1.06401193 0.531449258 0.93129313
      0.250344098 -0.211795136 0.142777279 0.861544907 -0.57531029
      -0.930791855 1.13339889 -0.701514244 0.46143496 0.0262514185
      0.308915764 -0.775709808 0.541907966 0.0436150581 0.330659151
      0.00174613134 0.19856824 -0.0762479007 0.846978188 0.0179866794
      0.227743447 -0.360926062 -0.0798359811 -0.347228467 -0.279629111
      -1.1219753 -0.986496508 0.0500926189 -0.462060153 -0.0666401759</_>
    <_>
      -8.07281876 8.08248043 1.58207536 0.44470197 1.96408558
      -1.30865049 -0.629513979 0.971862316 -0.782716513 0.193768442
      -1.28236985 -1.73040128 1.50740755 0.449322581 -1.06668925
      0.118158251 0.902519047 0.162406027 0.0866124853 -0.865751207
      0.844372153 0.38292852 -0.271127045 -0.237902269 -0.628245533
      0.787601411 -0.045004759 -0.255398273 0.0678054839 -0.568584859
      -0.411638349 -0.314763814 0.267892063 -0.777963936 -0.128104806
      0.208217919 0.253423035 0.0200535953 0.175423101 -0.119898804
      -0.33906132 -0.0638011768 0.126962766 -0.107572675 -0.604937017
      -0.549201727 -0.123275779 -0.546162248 -0.102506615 -0.170564801</_>
    <_>
      -10.7115564 -2.62515998 2.01223612 -0.370711416 0.157730177
      0.915798128 -1.72293782 0.659220994 -0.730458498 0.121276021
      0.166416198 0.859936237 0.474230319 0.901877701 -0.166814327
      0.297790557 -0.23943463 -0.242889345 -0.265810192 -0.567238331
      -0.159284264 0.468826681 0.430612773 0.309301406 -0.189532161
      -0.341166764 -0.124430478 -0.323270202 0.424346238 -0.067517139
      0.069933489 0.402552515 0.395992488 0.167996809 0.0769095197
      0.0832947046 -0.240380391 0.16428487 0.0264635682 -0.210114643
      0.00859118532 -0.347700775 -0.264028937 -0.171247363 -0.184968159
      0.542104483 -0.240184501 0.0156320557 0.0763954818 -0.144206971</_>
    <_>
      10.4698925 -3.3099761 -1.19144487 0.994343102 1.32768214
      0.870143473 0.828170419 -0.24512881 -1.82287765 0.0198449381
      -2.08534694 0.807712853 2.42616105 0.931696951 -0.101304054
      1.77790058 0.726737916 0.683113456 -0.0714107677 0.920202076
      -0.263595343 0.226112127 -0.569437146 -0.145641834 -0.435750782
      -0.134807527 0.309394926 0.843150198 0.148519486 0.225360319
      -0.936545074 -0.45115298 0.297548622 -0.350123137 1.18862092
      1.15542603 -1.50006008 0.0286458749 0.419318944 0.388476521
      -0.0177000016 -0.367020547 0.0462276265 -0.242749095 -0.332021087
      0.246049896 -0.478676528 0.40461114 0.228300184 -0.414490491</_>
    <_>
      6.80673933 -0.141531885 -0.136755124 -6.65863132 2.18751645
      1.57531488 -3.25453162 -3.64082646 -1.83341455 -1.74222815
      -0.206013158 -1.79776978 -1.31216669 -1.47134376 0.412240356
      0.303930819 -0.279296964 0.507052243 -0.446228743 -1.32364655
      1.07553637 -1.59272921 -0.465951592 -1.4882406 0.818559766
      -1.49947321 0.679841042 0.0765632913 1.1269058 -0.838552952
      -0.201232031 0.672627628 -0.425673306 -0.281504154 -0.681373239
      -0.102320209 0.391491681 -0.359505624 0.219761416 0.756332219
      -0.640264511 -0.014453196 -0.30779919 0.0582623668 -0.375645399
      -0.228684843 0.146026134 0.389947295 0.256707639 0.018906882</_>
    <_>
      -17.6317577 -1.09499955 -1.5108012 -0.216408506 0.884523988
      1.10500276 -0.573237598 0.285753727 0.422440827 -0.77355814
      0.279826105 0.352117956 1.03962243 -0.416456997 0.107069686
      -0.29164502 -0.481960028 0.517347097 -0.764932215 -0.0322125852
      -0.876766086 0.607132554 0.296010613 0.269827396 0.225354776
      -0.0750960633 0.178194582 0.544290245 0.919917405 0.152476445
      0.805134654 0.589678407 0.514204919 -0.480681837 -0.413654953
      0.192694053 -0.421276331 -0.258452356 -0.0330603793 0.244252428
      -0.6153934 -0.136183754 -0.194983691 -0.510970354 -0.0876454115
      0.880356014 0.101324983 0.175428525 -0.0543772951 -0.323677689</_>
    <_>
      6.13873339 7.13048458 -2.06776881 1.36363292 0.0157281347
      -0.442876637 2.11823511 -1.14880657 -0.0455820933 -1.62680137
      -0.0256027561 2.78651333 -1.48922312 -0.164149672 -0.716742516
      1.60089421 -0.0699797571 -0.0924748927 -0.795291901 0.419851363
      -0.515783608 0.933535993 0.826815546 -0.917119205 -0.603241801
      1.11146569 0.314660996 0.431522906 -0.228227422 -1.43500507
      -0.796225727 -0.132258624 0.266519159 0.0254991818 0.310447246
      -1.12342811 -0.58993113 0.357117176 0.937506855 0.244915083
      -0.568715394 0.30048874 -0.13378863 -0.141404182 0.519894421
      0.489054322 0.303494453 -0.252071857 0.0406024605 -0.230920881</_>
    <_>
      4.27012157 0.441881329 1.94743538 1.26793253 -2.27192354
      0.968605101 2.46563363 0.157568425 -0.239508793 0.577207148
      0.403452188 -1.47618771 0.237128735 -1.34757328 -0.948769152
      -1.36931896 -0.970250845 1.17823088 -0.767457187 -0.220280573
      0.505976677 -1.93847382 -0.111630447 1.39148474 -0.0111288186
      0.256325305 0.13243641 0.687365949 0.373912901 -0.244233519
      -0.346315533 0.183648407 -0.277897537 0.513943613 -0.48165071
      -0.498844177 0.182842135 -0.370752454 -0.247102261 -0.547467589
      0.197894871 -0.28674829 -0.464364737 -0.704947352 -0.20488216
      -0.165245041 0.17583397 -0.630859971 0.214730516 0.0542307459</_>
    <_>
      -0.945286334 2.21942139 7.34343481 -2.57703352 3.01014423
      1.09575999 0.458391517 -2.77505541 -0.0609426275 1.06848669
      1.00299227 -0.703420103 -1.36473298 0.238584757 0.552255094
      1.55723429 1.46656704 1.35580397 1.21324766 0.81803441
      -0.133675441 0.0225454979 -0.00942756236 0.46679914 0.127830163
      1.54564071 -0.990470588 -0.972051501 -1.55212724 -0.342195481
      0.0269484781 -0.274651021 -0.875756264 0.682113469 -1.13707983
      0.190025717 -0.251568884 -1.32724249 0.0098653473 -0.501182497
      0.302453756 0.265267968 0.795272589 0.0895600542 0.180003181
      -0.184749633 0.717260182 -0.125289649 -0.0660203695 -0.28127721</_>
    <_>
      -7.17693424 -2.62477636 6.60872984 -3.8515172 1.24167907
      -1.5530746 -0.0157118179 -1.70223391 3.13903213 0.829581082
      1.03384066 0.356620789 1.04940438 -0.644767106 0.038846273
      0.718702018 0.207394198 1.23380673 0.558174849 -0.447218269
      0.56374979 0.3640019 -0.145019129 0.192539245 0.215263471
      0.295032054 -0.821540773 0.527326584 -0.19286631 0.0456949919
      -0.267032951 -0.958289981 -0.139896661 -0.656672418 0.512380958
      0.486355603 -0.0440851003 0.867128074 0.0384006612 0.106804006
      0.606309712 -0.395667702 -0.526548088 -0.232860371 0.546229899
      0.327906907 0.624944329 -0.0477549657 -0.113387428 -0.369815856</_>
    <_>
      -5.61069584 -2.17019653 1.02364492 0.454515368 -1.74840641
      0.17221123 0.353837401 1.91604042 -0.176769227 -0.328756481
      -0.988488555 0.919298291 -0.97893393 0.214610487 -0.887803257
      0.440841824 0.97107029 -0.736721933 0.363843381 -0.752577662
      -0.282667935 -0.53749001 -0.17300269 0.0382836461 0.218620375
      0.165417254 0.596621573 0.244368702 0.480463922 0.12474367
      0.107541956 -0.0977667794 0.287829906 0.330871284 0.329620421
      -0.615775943 -0.0203402825 0.333299965 -0.254789442 -0.0103496751
      0.348588645 -0.429767758 -0.38156727 0.488117635 0.178383812
      -0.341098517 0.490578651 -0.316333175 0.571354806 0.116648756</_>
    <_>
      -1.57279599 2.17426014 0.735015213 2.51202369 0.782536507
      -0.471079797 -1.98866022 0.639914989 -0.865090907 0.916877627
      -1.52946746 -0.360457063 0.13660638 1.06111455 1.64064646
      1.16982603 -0.425063521 -1.02528036 0.59529072 0.7535519
      0.406015635 -1.15456438 0.529597819 -0.409139574 -0.109042898
      -0.256153107 2.27819085 0.951146126 -0.637781799 -0.0842257515
      -0.265478343 0.207538322 -0.459281743 -0.449741781 -0.0801922902
      -0.467475981 -0.0663388297 0.139963582 -0.624944925 0.159192696
      0.0834806561 0.45989868 -0.297684759 -1.13487744 0.420697629
      0.389149576 -0.51214844 0.252356261 0.0954906568 -0.992283344</_>
    <_>
      -9.71972179 9.15629101 5.42833376 -2.62206483 1.46461177
      -0.590645313 -1.253636 -0.168076172 0.979429483 -0.526245475
      -0.650234997 -0.114926226 0.984088063 1.28675663 -1.05020547
      0.231271774 -0.554898679 0.408945173 0.269215226 -0.260694057
      0.470672846 -0.690986037 -0.385787457 0.204667494 0.912929773
      -0.138872623 -0.191572875 1.03214347 -1.45436299 -0.260594755
      -0.580770969 0.112711102 0.158663258 -0.83753258 0.0453097411
      0.0105097722 0.409770399 -0.393787801 -0.732703567 -0.00342641817
      0.514613569 -0.112731598 0.508378923 -0.243580356 -0.574626446
      -0.609111071 -0.495949358 -0.476715356 -0.332767338 0.149343103</_>
    <_>
      3.97548842 2.23606467 -0.849748731 2.79799867 -2.29588628
      1.99542272 0.117549285 -1.16442847 0.183608025 1.58313787
      1.0933454 -0.326361358 -1.03080308 2.35364723 0.333838344
      0.211016506 0.860997617 -0.100874826 1.490381 -0.250576913
      0.64234072 -0.848036647 0.631537557 -0.922698557 0.164956748
      -0.433886737 -0.921123087 0.269524843 -0.978560627 0.0178813562
      1.879457 1.48051214 1.53599679 -0.775468111 -0.843043804
      -0.46593526 -0.153644964 0.648261666 0.0231528375 0.767423272
      -0.0945389941 -0.31532684 -0.376715928 0.222549513 0.391933769
      0.179625526 0.0240402706 -0.65837127 0.498481274 -0.324501932</_>
    <_>
      7.60688448 -1.23557878 -0.522099137 -4.74279213 2.98828769
      1.26396394 -3.11753321 -3.54095459 -1.12990081 -2.31709933
      -1.30278981 -1.85295987 -1.27925289 -0.482824922 -0.56715554
      0.836940467 -1.81528401 0.683140635 -0.332110822 -1.22890127
      0.526867867 -1.90346992 -0.567936301 -1.64396787 0.756127179
      -1.49686277 0.845965207 -0.263594419 1.3009522 -0.409866065
      0.547478199 0.274066925 -0.263475388 -0.277297258 0.198698759
      0.115077995 0.0323701389 -0.657605231 0.745014071 0.671219647
      -0.476300269 -0.333009779 -0.558736563 0.446558654 0.248342946
      0.0684465021 0.109455526 0.420753449 -0.1019518 0.173004314</_>
    <_>
      -5.97249651 -0.573303461 1.25317204 -0.765842319 2.51217151
      1.29477119 0.691841483 -1.4188664 -0.135923997 -0.423675269
      1.58052933 -1.03352141 2.13944912 0.406862706 -0.838451445
      0.596883714 0.654330552 0.879512727 -1.49383342 0.619754493
      0.207181945 0.419622421 -0.545523643 -1.10595286 0.154575214
      -0.332807124 -0.0748086423 0.146646634 -0.0143627608 -0.178494066
      0.258219957 -0.543009818 0.510803521 0.0810491517 -0.154487193
      -0.278913587 -0.270263106 0.604956865 0.965752602 0.17953147
      -0.352983385 -0.290461987 0.0969605744 0.22935687 -0.355627924
      -0.877827466 0.0400281027 0.425227076 0.476833552 -0.208905697</_>
    <_>
      -9.59507656 5.74351025 2.44333482 -2.14543462 -1.60558796
      -1.97114599 1.06749701 -1.98867512 0.635520875 3.21041393
      -0.435703874 2.08047414 0.743682444 -1.95607519 -0.343077302
      0.672424138 -0.911707878 -1.90884316 -0.226220682 -0.211528748
      -0.0132743781 -1.43146992 -0.0409971401 -0.0196964424 -0.346112162
      0.0165953003 -0.401950061 0.747645974 0.513249218 -0.29546088
      0.555848062 -0.610693216 -0.612197578 0.0640566871 -0.512389183
      0.890703201 -0.101859465 0.823965371 -0.322921991 0.490251541
      -0.179986283 0.178737745 0.172344998 0.452703774 1.07081938
      0.195996121 0.14099054 0.588226318 -0.291513741 -0.537558854</_>
    <_>
      -10.6979084 -1.52874613 1.84909678 -3.1470139 0.0168861914
      -0.516519785 0.205898032 0.59965831 -0.412162095 1.1186986
      -1.37713838 0.172705978 -0.271828651 0.550814331 0.85163182
      -0.960353613 -0.696476817 0.171898231 -0.88873446 0.126066029
      0.503872752 -0.216798604 0.244460016 0.836764157 0.138740882
      -0.782365203 0.395219743 -0.186294511 -0.130053505 -0.385953516
      0.113391183 -0.470065981 0.475654185 -0.422877371 -0.182419628
      0.233607903 0.310584307 -0.19276008 0.439919353 -0.0373769701
      -0.304457098 0.658859909 0.31923455 0.131633565 -0.337670743
      0.147331119 0.37803039 0.621770978 0.367675722 -0.12465629</_>
    <_>
      -0.754393697 -2.63772678 1.08784461 0.172816426 -0.923843443
      0.252437979 0.412000567 0.748328149 0.098667264 -0.260350168
      0.0268011726 0.924708068 0.000141327342 0.821642697 -1.33921075
      0.751898825 -0.264196962 0.0473812148 0.173224553 -0.210194513
      0.401815057 -0.0223154873 0.101482771 -0.688590229 0.448251963
      0.0452730469 0.635506511 -0.276422858 -0.0448397882 -0.0219292566
      0.958183825 -0.307978481 -0.314582765 -0.16180715 -0.369717091
      0.185815766 -0.0187127963 -0.0922390074 0.233031064 -0.481512636
      -0.685088992 0.139161944 -0.118299499 -0.254263699 0.0835130215
      -0.314088941 -0.331942201 0.193496987 -0.282547146 -0.0860647261</_>
    <_>
      -4.66265345 -3.35128713 0.288108677 0.94963479 1.35469961
      0.333218575 -1.22390831 0.0657786727 -0.90776509 1.27033615
      1.40342772 0.496813118 -0.0500535741 0.31184873 0.11673478
      0.329379827 -0.0495422669 0.118774891 -0.787955821 -0.0833818763
      0.335806996 0.269371539 0.391666591 -0.41880551 -0.111756988
      -0.0868368298 0.4871566 -0.0607080609 0.440101415 -0.204834178
      0.0998900011 0.397325128 -0.0678311512 -0.0980993137 0.0944423005
      0.199837491 -0.341866225 0.316557556 0.154415235 0.421884418
      -0.210327834 0.0600198098 -0.195604473 0.377251595 0.00132140028
      0.0440257676 -0.189740166 0.0281881783 -0.228994176 0.252135098</_>
    <_>
      -9.98478508 -1.24720025 2.67480159 -1.74806499 0.261441052
      -0.208356902 0.506684005 1.04021299 -0.26832062 0.454016894
      -2.66076517 -0.0420037955 -0.809718609 1.07317626 0.636102259
      -0.445962071 -0.895648837 -0.0214829408 0.0538899973 0.0320916735
      0.00870192144 -0.184360832 -0.223915473 0.40861851 -0.0498272553
      -0.935593665 -0.332126766 0.260673285 -0.214256868 -0.133001253
      0.360587925 0.00771792093 0.0826926976 -0.343400747 -0.024342427
      0.192205608 0.199342698 0.590255141 0.302924186 0.141638339
      0.482982814 0.613525748 -0.0328292325 0.0517187342 -0.112499781
      -0.1681768 0.236504123 0.487722784 0.221295208 0.310440153</_>
    <_>
      -5.52844191 1.54819942 3.2764523 -0.863277555 3.15922403
      2.44357896 -0.766567349 -1.24904871 -0.819329083 -0.981132567
      1.25578046 0.070504263 0.275356442 -0.0395109989 0.368993819
      0.393582404 -0.287955672 0.225934267 -0.564278066 -0.30230698
      -0.0450931787 0.181562081 0.654561996 -1.07025421 0.13167274
      0.328472555 -0.166651562 -0.152806461 1.26967871 -0.170581624
      -0.232993871 0.216244847 0.359379441 1.34879816 -0.125821158
      -0.787799478 0.319793373 0.25427714 -1.16375422 -0.307286322
      -0.178005457 -0.621826947 -0.104713902 -0.147148609 -0.854889691
      -0.102166772 0.155997813 0.137070104 0.597864151 0.0268735308</_>
    <_>
      2.98220849 -1.95182991 1.91619122 2.35340977 0.0706221461
      -0.452903718 -1.50112951 -0.263044983 -1.57035255 1.56495583
      1.42526722 0.666274548 -0.9769907 -0.223717555 -1.11448705
      0.284125358 -0.255674124 0.700357556 0.472565413 1.3092891
      0.854146719 0.127251104 0.479902267 1.16804266 -0.88355279
      -1.09721184 0.611736417 -0.867339611 0.43666023 0.361855567
      0.217349127 -0.55730933 0.591133296 -0.166319266 0.15442051
      -0.18951501 0.551395535 -0.0114729591 0.559015393 -0.147060692
      0.666431308 -0.381141424 -0.0151935341 -0.0380738415 -0.251395375
      -0.858549893 -0.718604147 0.17838636 -0.312237948 0.0510399528</_>
    <_>
      -4.72267771 8.22294712 2.0255394 -1.48114502 2.23370409
      -2.38734531 -1.79600275 -0.448543042 -0.647263348 -0.462874174
      0.119574934 -0.937599123 1.32816744 0.719296217 -0.900505304
      0.971567929 1.43676043 1.04077852 0.317868829 -0.580645621
      0.793066919 0.759683013 -0.271096617 0.180009693 -0.645857155
      0.935260892 -0.879275382 -0.517693639 0.0712310523 -0.116864525
      -0.360662222 -0.10499981 0.709112823 -0.102679133 0.0940350369
      -0.148844868 0.467511237 -1.06562126 -0.620042086 0.00810500421
      -0.122116752 -0.703784943 -0.416928321 -0.19669506 -0.791297615
      -0.372586995 0.155629784 -0.255653083 0.473587424 0.391430706</_>
    <_>
      8.22484684 0.820113599 2.76572132 1.28388321 1.97844887
      -2.67965436 3.18311691 3.38448524 -0.227194145 0.518902838
      -0.3386015 -0.792579532 -0.835456192 0.0585781261 1.12432909
      -0.665546894 -0.304234982 0.0887558907 -0.0291294251 0.891956627
      1.17842531 0.15988709 0.615032911 -0.102378659 -0.796258986
      -0.142364696 -1.07669067 0.941279173 0.790753067 -0.127776101
      -2.03055835 -0.718016326 -0.394123644 0.382300198 -0.862435699
      -0.52513659 -0.210617632 -1.15121698 0.298915148 0.119443491
      -0.870647669 -1.06365216 -0.117099717 0.0862104297 -0.11352434
      -0.860223353 -0.537098587 0.706718206 0.579989851 0.411050469</_>
    <_>
      -3.62117243 -2.09828639 0.485327303 0.785240889 2.14930558
      -2.33883023 0.295178324 1.64838302 -2.05793953 -0.193540707
      0.110082403 -0.493349731 0.14841409 0.100101091 -0.502893329
      -0.586160898 -1.12772357 -0.907901585 0.334830403 -0.255262136
      0.661890924 0.59726727 0.279018074 0.495386869 -0.0199958105
      0.365982682 -0.773246884 0.124896929 -0.116679236 -0.289635271
      0.518025398 -0.267113805 -0.087391153 0.470814735 -0.0982138067
      -0.0284494143 -0.135509208 -0.491362303 0.100604221 0.057781525
      0.185642987 0.321074784 -0.0103434492 0.501109183 -0.0137843452
      0.954614699 0.0137770884 0.0120584881 -0.0192089062 -0.0785367638</_>
    <_>
      -6.77650881 2.30232477 -4.21559477 1.49340153 3.27544403
      1.25825024 -0.0833591074 1.56984997 -1.22792959 -0.399641931
      -0.153885543 1.30612171 0.769734859 -1.28028119 -0.286219597
      0.72741282 -1.08130062 -1.53270149 0.403801769 0.383891523
      -0.822342694 -0.282277584 -0.446739912 0.00470502488 0.394797385
      0.127580449 -0.0305181574 -0.674398303 -0.628662109 0.593423009
      0.704997897 -0.00266202912 -0.653627336 0.064029038 0.693894386
      0.213477045 0.40975374 -0.591856062 0.39337787 -0.350814015
      0.00579148903 -0.785684884 0.0844521001 -0.424953431 -0.34104377
      0.370185554 0.379673928 -0.16304411 -0.313182831 -0.111195169</_>
    <_>
      9.52722263 1.48841298 2.54451632 0.404443145 1.52234364
      -0.735689998 4.34640694 3.88637066 -1.39178133 -0.681625843
      -1.73377311 -0.831828892 -0.186359078 0.431905329 1.54846561
      -0.105927207 -0.107205577 0.351958811 -0.214161992 0.723761737
      0.0416502878 -0.149242759 0.805176139 0.0843233243 -1.84572303
      -0.9509601 -1.11462057 0.999662817 -0.109738261 0.109173983
      -0.76447022 -0.415014058 0.0621436909 0.345849752 0.180451527
      -0.446840644 0.279792845 -0.801270604 -0.252000332 1.08597028
      -0.188416466 -2.20816445 0.650104165 0.171408921 -0.69760704
      -0.146460578 -0.524455309 0.591604531 -0.217370391 0.549440324</_>
    <_>
      -16.262476 -1.40420091 -0.172298297 -0.326901942 0.311347127
      1.05040169 0.394629776 0.766420603 0.272740334 -0.383160502
      -0.569095075 0.168363467 -0.192544326 0.156495839 0.273763478
      0.299149394 0.621560156 0.242313936 -1.06463778 0.173435494
      0.130866975 0.799015343 -0.122125074 0.173716798 0.320742548
      -0.144800037 0.129662126 0.0956959948 -0.122325972 -0.23343429
      0.407964498 0.447551608 0.540339172 0.301119059 0.00162303902
      0.154460758 -0.153495669 -0.270862162 0.305047244 0.274522096
      0.00450662803 0.253571659 -0.173146784 -0.0276616272 0.0433355458
      -0.0258131679 -0.395976305 0.0267057233 0.15587154 -0.0469434075</_>
    <_>
      -0.469525993 -1.12402582 2.53686261 -0.980016172 -0.556550503
      0.336991936 1.55237317 -1.45152223 -0.456850022 -0.5834589
      -2.13927269 -0.717217565 -0.0689902231 0.732642055 1.05417776
      -0.0525344498 -0.550485909 0.433561683 1.32605159 -0.545140803
      1.07405293 -0.997966051 0.0990029722 1.00292146 -0.83477366
      -0.0875853822 0.947897196 -0.26626721 -0.0770173892 -0.237875551
      -0.719995141 1.32052886 0.167320102 0.178527787 0.309992671
      0.488036156 0.748718619 -0.301119357 0.897319436 0.665515721
      0.331298888 0.601342261 0.273044586 0.0520113856 0.196825758
      0.471438318 0.788246095 0.466794133 0.9463346 -0.136095837</_>
    <_>
      -0.646042645 1.60881627 1.78854203 -0.188769758 2.3791151
      -0.415166765 -0.827237546 1.2538172 -1.86848629 -0.707046092
      -0.654830754 -0.552572131 0.333701193 0.389608592 -0.153561473
      -0.19881767 -0.304085672 -0.496070266 -0.276511669 -0.144799799
      -0.304519922 0.41487363 0.146917745 0.487016171 0.398586154
      0.0266171601 -0.607704401 0.172322035 0.041184105 -0.359365463
      0.675613761 -0.0275397319 0.172335967 0.292197824 0.168677017
      -0.168304339 0.0453381129 -0.257270813 -0.336395979 0.120057516
      0.273140937 0.184986889 -0.249261513 0.33376205 0.140872091
      0.726085424 -0.187622726 0.237570956 0.0442797616 -0.189442948</_>
    <_>
      11.4261379 3.54980707 1.04655755 0.660127938 0.72146219 1.387972
      0.316090971 1.12446666 -1.01609182 -0.619204044 -0.9514153
      -1.53965449 -0.856775165 -0.56633985 1.00899076 0.763511419
      -0.296246171 0.0633850619 -0.260792732 -0.122666821 -1.28993845
      -0.119355418 -1.04704535 0.555096924 0.49221617 0.525293231
      -0.145309314 -0.566298842 0.0811431855 0.807425916 0.126757115
      -0.926949024 1.29354858 -0.694679558 0.887297034 -0.678221822
      0.104894511 0.900534034 0.418251753 0.116174184 -1.14858437
      -1.16471291 0.721513391 -0.578469515 0.729121506 -0.205326229
      0.930464029 -0.0466730036 0.80528152 -0.160745889</_>
    <_>
      5.20420694 -0.782078922 3.75497055 -0.761051118 1.59170306
      -1.24482596 1.02930272 0.184274763 -0.878513038 -0.0177213363
      0.220352888 -0.484815091 -1.23649597 -2.38315511 -1.038854
      -0.988849342 -0.862624288 -0.674204469 0.384120762 0.271845907
      1.07243574 0.572880805 -0.117039055 -0.235544264 0.198078871
      0.485940158 0.10968364 -0.249508977 -0.109104954 0.33326602
      -0.173370838 -0.369918168 0.134709179 -0.508617699 0.0269218553
      -1.32007146 -0.103973746 0.864678979 0.2316477 0.353556454
      0.365281582 0.32121858 0.149640188 0.458389282 -0.488032728
      0.364682317 -0.538346589 -0.191205293 -0.296761394 -0.774433196</_>
    <_>
      -9.35436058 1.47528529 -3.41924834 1.9494729 3.59042573
      0.509844005 -0.682988822 1.81748188 -0.325229436 -0.339600533
      0.179555774 0.97653681 0.760137558 -1.41124892 0.244682938
      0.300339043 -0.679024816 -1.24257517 0.527185917 0.311188698
      -0.898972094 -0.0636808351 -0.392531872 -0.129838794 0.00702028861
      -0.114911914 0.132020503 -0.265644729 -0.892466068 0.193689018
      0.836582959 -0.200721353 -0.322356492 0.187189177 0.381807297
      0.0911536887 0.289661616 -0.581407249 0.297122985 -0.19444418
      0.00500417734 -0.574553847 0.15111053 -0.209065318 -0.172440797
      0.377011061 0.221033603 -0.238432795 -0.247818992 -0.236057907</_>
    <_>
      4.99599695 -0.910055459 -3.72756243 2.48276544 2.27596092
      2.56044292 3.29798436 -2.15798283 0.241487712 1.11301696
      0.809948623 0.0217600781 0.109813966 1.1963855 0.149770722
      1.04136145 -0.736685157 -0.372577131 0.620952308 0.0298912413
      -0.729578972 -0.335282147 0.670169055 0.201847479 -1.19374442
      -0.633782208 0.256845772 -0.302598029 -0.0740190297 0.0357223414
      0.72864002 -0.368236154 -0.114058658 0.230237082 -0.0996808857
      -0.118846267 1.3619976 -0.463516831 -0.811911285 -0.7571823
      1.28636396 -0.688193321 -0.0496156923 -0.129587114 -0.776334107
      -0.318282366 0.439352721 -0.560289145 0.221436128 0.0241730791</_>
    <_>
      4.58354759 -1.50608337 -4.08499527 2.26543951 2.14360642
      2.19551492 3.11674905 -2.33153892 0.42750138 0.90256834
      0.703461707 0.272655427 0.120989949 1.15626323 -0.271132797
      1.21328294 -0.601501763 -0.209997058 0.383254498 -0.0160113722
      -0.403175712 -0.457798421 0.825098574 0.217961207 -1.13097882
      -0.691883624 0.16266714 0.0468396135 -0.136284798 -0.0496264137
      0.392732531 -0.256130725 -0.0594729073 -0.168428779 0.0981857553
      -0.0424996205 1.10051084 -0.434627324 -0.720947444 -0.834357023
      0.998989046 -0.359030575 0.0284841675 -0.316364318 -0.755055308
      -0.4049308 0.157387048 -0.543181479 0.159041613 -0.195948467</_>
    <_>
      -11.8466759 1.29125476 -2.66091776 1.35909677 1.96262622
      1.22986245 -0.413118005 0.880426884 -0.828523099 1.60813403
      -0.0149332853 -0.641669333 -0.431188583 -0.498235404 0.0205404423
      0.379568428 -0.625672162 0.173583463 -0.16425544 -0.397383273
      -0.188041925 0.633954287 -0.0825278461 0.51297003 -0.674838185
      0.56982249 -0.307693928 -0.0985792652 0.365834892 0.314583182
      0.324639261 0.103647053 0.877855003 -0.199232221 -0.194607481
      0.466999143 -0.481072515 0.304939777 0.353981644 -0.0964473709
      -0.110788867 -0.1438054 0.0413485691 0.118101403 0.345380515
      -0.218328252 0.177260607 0.219051197 -0.472824365 0.0140120368</_>
    <_>
      5.59160089 7.55303192 -2.09615731 1.03740168 -0.260901272
      -0.617985666 1.64028943 -0.407292545 0.460558504 -2.23276067
      -0.339975208 3.17603159 -2.22626448 -0.229168952 -0.842375875
      1.46648419 0.306018114 0.0869299769 -0.834620953 0.19672972
      -0.716883183 1.12793922 0.801354527 -1.2368083 -0.251594365
      1.05783331 0.415337831 0.553921759 0.0534837283 -1.2797451
      -0.794849694 -0.235482469 0.533958614 0.203551874 0.72291857
      -0.879430652 -0.685655713 0.180785224 0.244505063 0.55817008
      -0.394417495 0.877460122 -0.158661619 0.118665755 0.580498278
      0.685925186 0.694834113 -0.324635655 -0.283847302 0.468208939</_>
    <_>
      8.61577606 -0.840480804 -0.863287568 0.367600173 0.625272393
      -0.295212984 -0.489244074 -0.228139818 -2.40325189 0.724713683
      0.659535944 -0.329766661 1.98298264 -1.73140919 -0.696199417
      -0.116971217 -0.920782924 -0.793261826 -0.990070701 0.700257003
      0.574865043 -1.52390885 0.453399479 -0.323954612 -0.436712056
      1.45536005 -0.594525456 -0.70008868 0.0295550842 -0.21293354
      0.372657716 0.336319417 0.73998332 -1.11079967 -0.549755573
      0.112742178 0.392627984 -0.276212841 0.507576406 0.0293618403
      -0.0499625579 0.802660227 -0.398259878 -0.396014839 0.966137052
      -0.137071639 -0.00391871436 0.567090988 -0.317009062 -0.354247987</_>
    <_>
      3.84487844 2.085361 -1.02734399 2.75649738 -2.1480937 1.99898303
      0.167445019 -1.2467618 0.222208813 1.69457793 1.08281326
      -0.350806415 -1.08529925 2.21582794 0.221084028 0.257254869
      0.774911106 0.0763741359 1.48763001 -0.240613297 0.782455444
      -0.795771003 0.564773262 -0.712662935 -0.136070669 -0.275767475
      -0.744251311 0.28758347 -0.981518507 -0.0402029604 2.01611614
      1.51186323 1.5748359 -0.747832 -0.871919453 -0.407866478
      -0.172169164 0.612405419 -0.00286761788 0.735877693 -0.159818009
      -0.411055773 -0.330333233 0.147607386 0.443119705 0.137442932
      0.0224089138 -0.59651804 0.394128025 -0.281116784</_>
    <_>
      7.8820672 1.22815001 2.8608911 0.65233165 2.15978646 -2.77701592
      3.72830224 3.30174375 -0.0274163764 0.832293987 -0.707541168
      -1.2467382 -0.839884341 0.0451219752 1.37380207 -0.619494498
      -0.495905012 -0.0130234882 0.173287556 1.17410612 0.87789166
      -0.0776022375 0.910432279 -0.199445352 -0.802015603 -0.702058613
      -1.19166481 1.13375425 0.784937978 -0.0570473373 -1.52163553
      -0.660470486 -0.523282886 0.515002608 -0.908257008 -0.217204556
      -0.627382576 -1.26732159 0.29923594 0.395719349 -0.578127086
      -1.18281901 -0.385160536 -0.101006791 -0.216856614 -1.06949222
      -0.743108571 0.77612704 0.376525819 0.205695316</_>
    <_>
      -4.08725166 -1.19574773 -5.90091372 -0.111740977 1.21846592
      2.03979826 0.264922708 0.658171117 -0.285262197 2.72520518
      0.0859334767 1.46329665 -0.608648539 0.839915454 0.350437552
      -1.14962685 0.0596604943 1.13755679 -1.25428224 -1.28010738
      -1.90909386 -0.588305652 0.519207656 -0.647862494 -0.1341656
      0.396117926 0.0103456965 0.196919084 -0.314334184 0.0996062681
      -1.08134532 -0.608282685 0.179909647 -1.03445673 0.0952524245
      0.575794876 -0.347197652 -0.47806868 0.0269652084 0.0639149025
      0.359112173 -0.0800990313 -0.36228019 0.440994322 -0.182316288
      -0.237976447 -0.0335121267 0.437769711 0.0018412997 -0.543700099</_>
    <_>
      -9.34565449 1.48011315 -3.45125604 1.85562563 3.64308095
      0.454391092 -0.67702359 1.85232806 -0.317984611 -0.360563993
      0.116843209 0.905562878 0.774387121 -1.41504669 0.179253221
      0.303359151 -0.689440548 -1.25693023 0.556387901 0.275183827
      -0.918548465 -0.0569456816 -0.355437577 -0.112654187 0.0270029809
      -0.112772137 0.0784571469 -0.201454476 -0.896428287 0.188646689
      0.833892643 -0.122568384 -0.358602196 0.188038111 0.388139427
      0.0687661022 0.278449565 -0.56625998 0.314031154 -0.235800594
      0.00824191701 -0.532661855 0.132403538 -0.206197426 -0.160200641
      0.416407675 0.240283638 -0.240652442 -0.303135902 -0.260975331</_>
    <_>
      1.45493221 -2.80165434 3.29148126 0.985598624 -0.441870064
      0.432385474 0.481708586 1.17099583 -1.08877957 -0.776435971
      -0.613317907 1.56349111 -0.0641073287 -0.604949892 -0.704997957
      -0.375725955 1.21027589 0.204714686 0.454761356 0.269358635
      -0.697539985 -0.392200738 -0.228565246 -0.191362858 -0.207837954
      -0.62320137 0.436756879 0.88720113 -0.119187973 -0.0678322837
      0.50688082 0.233698905 1.106951 -0.165805772 -0.162668973
      0.468423486 0.832468748 -0.0616595596 -0.322742283 0.0941740125
      0.0125194397 -0.24445191 -0.0280935597 0.00776242744 -0.0468493924
      -0.187996253 -0.261407316 0.111406408 0.213585496 0.15828447</_>
    <_>
      0.410645485 -0.354954243 0.936854124 -0.468345731 -1.52484429
      0.628373146 1.29535317 -0.831786811 -1.61228168 0.218023747
      1.30362225 0.424816787 -0.55675739 1.81008148 -0.00858180411
      -0.296962798 0.810385406 -1.23515093 0.0477535017 0.754481375
      0.254779935 0.731818259 -1.20677745 -0.963824451 0.799706399
      0.831205428 0.070930168 0.197889432 0.575858057 0.314194202
      0.671860456 0.056361448 -0.385032892 -0.456973433 -0.662197948
      0.341761142 0.0134803131 0.799185038 -0.0388270393 -0.347630352
      0.0725375637 0.340029091 -0.864301264 0.0965429768 -0.126690626
      0.487270236 0.516339839 0.296487182 0.815245926 -0.232393861</_>
    <_>
      -9.68999481 5.0237174 2.40845919 -1.52599025 -1.78467631
      -1.55988038 1.71603096 -2.09572816 0.05437693 2.7407968
      -0.0971836671 2.08314705 1.24629462 -0.878016412 0.178328469
      0.0976631418 -0.786566079 -1.85248601 0.0333190747 -0.100065954
      -0.00796944834 -1.6238817 -0.48564297 0.149655148 -0.772076666
      -0.0517734848 -0.474308968 0.292994767 0.551907301 -0.368779689
      0.43669185 -0.531307101 -0.861218333 -0.00299266865 -0.636371613
      0.948647499 0.0781879053 0.667940021 -0.250752866 0.607820809
      -0.246345475 -0.151863456 0.201501667 0.563115656 0.81479305
      0.179907143 0.334459543 0.299254298 0.122956097 0.116900161</_>
    <_>
      -2.53326631 -2.0336163 -4.06325769 1.95799816 2.88222051
      1.69134068 0.957899034 0.0123977931 0.832293808 2.95748377
      -0.109552421 1.05435777 -1.43137217 1.5878706 0.0347282737
      -1.29136026 -0.286435157 0.629993856 -1.15389132 -1.38435006
      -2.19369674 -0.453170568 0.580040574 -0.844011843 0.0406030342
      -0.0554630011 0.50026679 0.628370702 -0.672362745 -0.441958755
      0.0564932637 -0.602730274 0.30000481 -0.0586889982 -0.0486148447
      0.387827188 -0.394039005 0.253771901 0.411212802 0.455981016
      0.15611507 0.14689441 0.0374082699 0.806294799 -0.247236148
      -0.00987040717 0.179457113 0.326286823 -0.259326369 -0.347387761</_>
    <_>
      10.8455286 -2.29673195 0.727639616 2.77666354 1.73216367
      1.08099604 -2.26786375 0.000822144386 -0.171709433 1.02294648
      1.24060345 0.475148946 1.36981905 -0.724745154 0.412141204
      0.152193382 1.19383776 0.957826555 -1.13198185 0.959467173
      0.956539571 0.167319581 -0.605273783 -1.11885536 0.00853198115
      -0.826075196 0.0266230404 0.816981137 0.292719603 0.123533346
      0.0433199555 -0.321130753 0.389445335 0.4706586 0.0419337116
      0.494557828 -0.490109146 0.101953991 -0.648274302 0.899682045
      -0.292645305 -0.145513505 0.615530908 0.702542841 -0.0715243742
      0.762496173 -0.194060251 -0.179158479 -0.101743631 0.153403059</_>
    <_>
      4.67362595 0.758825123 -0.902319789 3.92151976 -1.56486893
      -0.866577208 -1.9003489 -2.75338221 0.798346281 2.26279783
      -0.226352721 -0.336295575 -0.172813028 -0.381198674 0.706835806
      0.0838849992 1.44054377 0.438500643 0.0177193526 -0.181601435
      0.165242121 0.832324684 -0.770726562 -0.315120071 0.123530187
      -0.00126244512 -0.585791171 0.143493086 -0.0136907026 0.694504738
      0.300119996 0.456349134 -0.211705178 -0.228054136 0.374168515
      0.180325583 -0.303145051 -0.270643145 0.896949887 0.390149027
      -0.549016774 -0.161380619 0.586270452 -0.0996295735 0.0906943455
      0.405066133 0.0537846088 0.58951813 -0.673994064 -0.061733298</_>
    <_>
      2.9493041 2.79837847 -3.24023318 0.581698775 -2.9942019 1.29884624
      -0.492130965 -1.14371121 -0.114810385 1.29082108 0.973005772
      0.856152833 0.00846488029 1.21073508 0.528331876 0.167434484
      0.407421827 0.516952574 1.81025207 -0.635124266 0.54582572
      0.425343424 -0.693500876 -0.802136242 -0.0897702351 -0.146109283
      -1.01712537 0.144716635 0.0156447608 -1.05440843 1.54701865
      -0.404344857 0.154051527 -0.925345898 -1.01484072 -0.868593574
      -0.690421045 0.543016315 0.338738441 0.604381084 -0.575271904
      -1.18688428 -0.18746838 -0.257844776 -0.401107788 -0.222510308
      -0.381989032 -0.300173402 -0.653594434 -0.669171751</_>
    <_>
      -5.49699688 -2.26204967 1.26776409 0.634640694 -1.64113367
      0.281204313 0.192621797 1.79828691 -0.333739877 -0.472200811
      -0.94659102 1.07943547 -1.01328027 0.19491303 -1.04811895
      0.407293409 1.12338138 -0.860269487 0.352776557 -0.79365027
      -0.207246125 -0.507999003 -0.138837278 -0.00531853596 0.309536546
      0.0800548792 0.620840132 0.120761827 0.493264437 0.134440571
      -0.0156338923 -0.247024015 0.189795911 0.236994222 0.326313615
      -0.560467184 -0.00784841646 0.366523534 -0.204909936 0.0822522119
      0.356494844 -0.441328764 -0.442395389 0.518240452 0.150709271
      -0.276612222 0.470001042 -0.355338067 0.539003015 0.0183813553</_>
    <_>
      -5.05299044 -0.380209357 -1.44080734 0.623965502 -0.617193222
      0.443718731 -0.746578634 1.4995631 -0.726751924 1.38739383
      -0.160764545 -1.30745327 -0.415771991 -0.0794549808 -0.828585029
      -0.407712013 -0.411154807 0.176307797 -0.375048131 0.111992985
      0.229278505 0.700560987 -0.341498077 0.0307482816 -0.858892977
      0.247098997 -0.0682389066 0.339800894 0.338362634 -0.25051567
      0.173314884 0.240513548 0.198688969 0.265858084 0.0377734974
      0.455905735 0.139708996 -0.209852099 0.0397978462 -0.472876996
      -0.188324526 -0.0940300077 -0.21051155 -0.568208635 0.321048051
      -0.529017985 -0.0330531523 0.0991567671 0.0504412167 -0.178988129</_>
    <_>
      -17.5538979 -0.786433339 -0.437589228 0.412189901 1.22451627
      1.49801242 -0.882978439 0.272858351 0.866671383 -0.722511351
      -0.646824956 -0.967543781 0.410290599 0.979931235 0.730837703
      -0.128778487 -0.616021276 0.441204935 -0.311831027 0.398531377
      -0.0932648703 0.307476848 -0.112920411 0.762172818 0.0643303692
      -0.458182037 -0.226960957 0.259455144 0.640172362 0.349115461
      0.249790192 0.506814003 0.0734597296 0.242962673 -0.272527754
      -0.00652031275 0.224470183 -0.0177761 0.466303945 0.190877065
      -0.603173435 -0.355261922 -0.0535499081 -0.526854634 0.0807019845
      0.43989104 -0.249233887 -0.0935745984 -0.359308779 -0.0832911059</_>
    <_>
      9.14542389 1.87105012 1.98290241 -0.366338551 1.46089292
      -1.46387374 4.29172802 3.77371311 -0.996874332 -0.29520902
      -2.02657533 -1.02669656 -0.0881596431 0.945608377 1.60960495
      0.0362506025 0.0834393501 0.423725396 -0.252799779 1.17322135
      -0.123830609 -0.367444485 1.31390786 0.0462803245 -1.55465615
      -1.41171157 -1.38371277 1.45630133 -0.205436692 0.275056392
      -0.182903513 -0.454773337 -0.0519124232 0.595143855 0.308471352
      0.277701676 0.173177302 -0.920038044 -0.344374806 0.789711297
      -0.486162186 -2.08971071 0.554821074 0.106406078 -0.655795217
      -0.0741428211 -0.662408292 0.413521647 -0.327425689 0.493356586</_>
    <_>
      -1.57028806 -2.97696805 1.20194626 0.850843132 -0.439567059
      -0.862296581 -1.06871295 0.679700255 1.1962409 0.142901674
      -0.140727118 0.422483921 -0.105456576 0.525944054 -0.426563442
      0.462572396 0.603977323 0.543344259 0.807526231 -0.623803914
      -0.277300954 -0.163539067 0.306015521 -0.898137927 0.123183265
      -0.206551433 0.846626163 -0.326863647 -0.440815836 0.421660513
      0.521629274 -0.352867335 -0.364732116 0.249273539 -0.0961590037
      0.341615885 -0.217833325 -0.0597990118 0.0365520492 -0.200397864
      -0.285269052 0.16675441 -0.402132303 0.459494025 0.406929255
      -0.179363877 0.309060395 -0.014048689 -0.111533031 0.064533703</_>
    <_>
      4.57796192 0.632982492 1.87337506 0.720664322 -1.67460895
      0.0660615563 2.90500116 0.355260253 0.117153928 1.0110687
      -0.0273394678 -1.5794915 -0.0848298818 -1.75995457 -0.94761014
      -1.38526297 -1.27270854 0.647308886 -0.292739332 0.232807338
      0.334033728 -1.26799035 -0.677579224 0.843043923 0.966331065
      0.359675795 0.360675514 0.794671059 0.556787193 0.113470882
      -0.291284949 -0.200160027 0.109456345 0.475442708 -0.046200987
      -0.755954146 -0.222618073 -0.12274278 -0.0475255214 0.525703371
      0.505184829 -0.125640392 -0.441765726 -0.167939752 -0.448189616
      0.163053617 0.417465448 -0.841270447 -0.10748744 -0.343682498</_>
    <_>
      2.87173152 -4.53244495 -3.72061515 -1.36615729 0.139079064
      -2.5446372 -1.96057034 -0.123874515 -0.978714585 -0.4538396
      -1.69180143 -0.827871621 -0.0891029388 -0.645896494 -1.09291446
      0.551727474 0.436669141 0.348256469 -0.723885119 0.735707998
      -0.460482687 -1.44049299 -0.838404179 0.539646566 0.572329462
      0.383879662 -0.813733757 -0.364905447 -0.414471865 -0.455501527
      -0.847756624 -0.352297783 -0.190843016 -0.42933929 -0.351609141
      0.281162083 1.14653659 -0.306009531 0.65969187 -0.278936744
      0.0814442635 0.0262935348 0.729242563 -0.0746768489 -1.30178511
      0.170123145 -1.0119648 -0.146686748 -0.175895557 -0.296270311</_>
    <_>
      6.06926727 -0.657988429 0.808111787 0.901281595 -2.22948933
      0.499981999 1.04311764 -0.0446790792 -1.24628639 -0.514549255
      -0.0665158853 1.21522689 0.310655087 1.58329916 0.769493043
      1.134413 -0.593714118 -0.486667812 0.113325827 -0.79204154
      0.00763247255 -0.559039533 0.853038788 0.304142803 0.383025646
      0.775449276 -0.586079836 0.580371559 0.866037846 0.662623942
      -0.47146222 -0.329669267 0.00208904431 -0.213873684 0.18167603
      0.390178353 -0.275485873 -0.428491086 0.0768107474 -0.628353715
      -0.720283628 -0.00617920281 0.391980469 0.171628252 -0.149233267
      0.168849975 -0.0259832498 -0.426870644 0.33773461 -0.00907389447</_>
    <_>
      -7.82799053 6.43698406 2.67990637 1.28762639 0.7605955
      0.0928040892 1.34710419 0.864499271 -1.15709877 0.24879092
      -0.772027671 -2.00562477 1.20988405 0.575794876 -0.204710543
      -0.454838157 0.338062733 -0.457296997 -0.880312383 -0.95147264
      0.40319404 -0.131097719 -0.0432201102 -0.756175458 -0.147895932
      0.323629409 0.706426919 -0.780813575 0.104211614 -0.864991486
      -0.844914675 0.0826722309 0.115487464 -0.834063053 0.475745112
      -0.117825158 -0.142394587 0.0653637201 0.207421839 -0.538741469
      0.105266884 0.553556502 -0.389133036 0.28540507 -0.161461115
      -0.622098684 -0.356720209 -0.266801685 -0.163468018 0.526120365</_>
    <_>
      -0.987455189 2.14421082 -2.49787736 0.636474669 -0.375289619
      1.81705976 3.7221508 -2.21085453 1.65153372 -1.23318946
      -0.325065881 -1.70765233 -0.526129961 0.0340533666 -0.900094211
      -1.27030969 -0.106447846 0.675136268 0.779853821 0.395198435
      -0.377345711 0.10190849 -0.52773577 -0.496497512 0.476291567
      1.21992505 0.44387874 -1.24556458 0.767852187 -0.460570663
      -0.790491581 0.270971328 0.283461243 0.582868278 0.159419343
      0.256194681 -0.148037091 -0.774499118 -0.823189735 0.311842591
      0.00526232785 -0.340637624 -0.56175524 0.847200215 0.650804937
      0.805201232 -1.23447859 0.119458571 -0.413303584 -0.499276102</_>
    <_>
      -5.62891865 1.49750102 3.23423147 -0.931259573 3.1863718
      2.22317696 -0.608348429 -1.2046386 -0.873862207 -1.00429618
      1.07123315 -0.00842863694 0.392053157 -0.0583299324 0.393821746
      0.499996662 -0.15714696 0.274358332 -0.466601253 -0.254914582
      0.0623848252 0.122187376 0.56970346 -1.07083654 0.0973693579
      0.502518475 -0.159183264 -0.281233907 1.27586162 -0.166672349
      -0.267659664 0.276994944 0.253236651 1.32239377 -0.0728839561
      -0.745762527 0.382659107 0.156256959 -1.20508659 -0.174819499
      -0.130808577 -0.682668865 -0.226474062 -0.11012686 -0.986718416
      -0.0960618779 0.115156725 0.0346080624 0.470778674 -0.0268342029</_>
    <_>
      -9.10832787 -2.06384325 3.95613432 -0.273206651 0.884469807
      1.21884227 0.747638404 0.532366157 -0.587760508 -0.330772251
      -1.98730874 0.183069631 -0.486509979 0.733397007 1.1503793
      -0.543623507 -0.781891704 -0.153143257 0.259377658 -0.536732972
      -0.350676209 0.0413426794 -0.487030566 0.339531481 -0.395494312
      0.26953876 -0.236965239 0.392801017 -0.313285112 0.00792340282
      -0.557040989 0.482665956 0.109618708 -0.0274598561 -0.173011705
      0.660114884 0.310569704 0.431722581 0.547483981 0.527780235
      0.212885678 -0.0037383833 0.0506183244 -0.421102077 -0.159691095
      0.0794614851 0.0868457779 0.141096801 0.470424175 0.204216182</_>
    <_>
      5.80295181 8.5392952 -3.29385519 -0.0320916027 0.625841916
      -0.298627645 -0.508640409 1.14462841 0.0557880364 -1.95308304
      -0.531684816 3.32554221 -2.85372758 -0.718695402 -0.327107847
      -0.263345152 0.332008988 -0.129984587 -1.01455486 -0.223432332
      -0.679551244 0.579135001 1.50154078 -2.21807146 -0.503486991
      1.24118602 0.153164893 0.0210469998 0.552716374 -0.742682874
      -0.209297553 -0.0340137966 0.512486398 0.237406984 0.658101141
      -0.260858804 0.0108325509 -0.605911374 0.0525281541 -0.379481345
      0.495479316 0.120659128 -0.593142867 0.0294707455 0.135074615
      -0.282028913 0.465364009 0.362989724 -0.551102459 1.11210895</_>
    <_>
      6.52224493 7.18502855 -2.05727744 3.38752937 2.24260044
      -1.81068647 -0.571766615 -0.819089174 0.477395415 -1.56142354
      0.606748164 2.46526957 -2.30360723 -0.330834925 -0.852270663
      0.192914024 0.1436093 -0.0895769 -1.32815766 0.729380488
      0.0624649711 0.560762227 1.12931633 -0.170682833 -1.48256707
      0.630000114 1.09132433 0.719973207 -1.0327431 -1.30272305
      -0.285682321 0.0939140543 0.833359301 0.151420042 0.00640222663
      0.182902679 -0.350047112 -0.060943678 -0.607422292 0.374423653
      -0.169355989 1.07240117 -0.0965601653 0.144553795 -0.23079519
      0.4499515 1.08747613 -0.161371395 -0.2949121 1.09636664</_>
    <_>
      8.10572624 0.296418518 1.01743758 -1.78842902 1.48098052
      1.79116642 -4.10537529 -4.40359116 -2.82951593 -0.0210921075
      1.77772844 -1.67872584 -0.512176275 0.102236979 1.36818755
      1.31034577 -3.03209853 0.375355124 0.99372673 1.89571631
      0.595030129 -0.595337689 0.773177445 -0.257473499 -0.571487784
      -0.0712407231 -1.06848276 1.50607204 0.673831046 -0.338051081
      1.00818467 0.0204153731 0.814274549 -0.0341117196 -0.0532113612
      -1.25781262 0.910937428 1.94185245 -1.72945082 0.224790782
      0.311869591 -0.776427507 -0.388205796 0.81674701 0.0843263865
      -0.216565788 0.156017944 -0.718913436 0.240144849 0.707674086</_>
    <_>
      5.86460066 -0.145279348 1.67795908 -0.443534344 -2.2768302
      0.680444121 -0.51947087 -0.793233037 0.903316736 1.17954123
      -2.8173871 -0.651626229 -0.0402579531 -1.24940884 1.0063411
      0.342115402 -2.80557966 -0.473347843 -0.391293526 1.42669332
      -0.236115307 1.9257437 -0.459805727 -1.53686154 -0.27374202
      0.274778217 -0.0199156236 0.0969017521 -0.121143162 -0.194132671
      0.600839138 -0.0325265154 -0.764065266 -0.361351132 -0.139957458
      -0.362520218 0.467304379 -0.701938152 0.297467798 -0.00929039996
      -0.578544259 0.340447724 -0.681388199 0.17134431 -0.811238945
      -0.927291214 -0.162124097 -0.263614863 -1.0212543 -0.538058162</_>
    <_>
      -11.6022654 2.69230294 1.1859616 0.990435064 -1.44755733
      -3.57045722 -0.863375187 0.108084619 0.77582866 -1.87348759
      1.5597558 -0.343167931 -2.75889063 1.43182647 1.8871665
      0.183000043 -0.415777951 1.91679764 -1.90382147 0.681092978
      1.82477307 -0.046099063 -1.98349094 -0.879077494 -2.18681955
      0.0993578807 0.902938604 -0.513481081 0.00634865137 1.17177618
      -0.0626157373 -0.0764414519 -0.666948736 0.837110698 -0.132647201
      -0.153999344 -0.210676 0.719957829 -0.87695241 -1.03887236
      0.376179278 -0.728782475 0.915009677 -0.0208875127 0.327199668
      0.920460939 0.0795766711 0.312128156 -0.373655826 -0.794996262</_>
    <_>
      -4.65646076 -0.843863904 0.194439307 1.19373953 -1.04107738
      0.760034978 0.368396342 1.45573282 -1.31635296 0.650876701
      -0.503349602 -0.631639719 -0.258341342 -0.414971262 -0.599312007
      -0.327961951 0.0320206471 0.576618314 0.133944929 -0.0160953384
      -0.284118325 0.423364818 -0.0370234437 -0.166161299 -0.786579251
      -0.287985831 -0.171058953 0.521198571 0.0943142474 0.216987774
      0.265139908 0.121075377 0.361932933 0.313539743 0.185358405
      -0.147721812 -0.265940636 -0.547421575 -0.113683999 -0.115551129
      -0.139882758 0.149333894 -0.103456639 0.00679501612 0.129348502
      -0.0658159629 -0.0557321794 -0.355950475 0.0178844053 0.0809036493</_>
    <_>
      -2.32252049 2.7284162 6.6452632 -3.01245141 2.72531104 1.51468706
      0.977612793 -2.41233587 -0.482645482 0.813364506 0.874143839
      -0.248998016 -1.00050771 0.906614125 -0.163477018 1.52263498
      0.545481801 0.643718183 2.09072924 0.509081662 0.0686075687
      -0.0618539378 -0.641167939 0.0810790658 -0.441855431 1.54912817
      -0.516399801 -0.175762504 -1.19575763 0.50277704 0.0579576194
      -0.103863351 0.101956747 0.313502163 -0.883312643 0.028976731
      -0.209805444 -1.6512388 0.181516856 -0.611544251 0.6947577
      0.262018204 0.686223269 -0.0546384417 0.227139905 -0.405485719
      0.475866586 -0.324556768 -0.0719982684 -0.376183748</_>
    <_>
      0.336916149 0.97955972 -3.06203079 1.04206717 3.40806556
      3.27814794 -0.168480828 1.94561327 3.36353016 -0.0772683471
      -2.14330268 2.9995532 0.355343044 -0.283676088 1.52915835
      -0.290945977 -0.287026942 1.26873291 1.53141391 1.86783791
      1.12009859 -0.94340241 -2.08699036 -0.0769757777 0.654350698
      -1.24026024 -1.59192395 -1.43311584 -0.0281246379 -0.885404408
      0.0820425302 0.738509893 0.563916624 -0.238161892 0.36790055
      -0.317201555 -0.247291207 0.554264963 -0.855528951 -0.407472759
      -0.296096414 0.43073985 -0.288584948 -0.364070475 0.219528764
      -0.139489576 0.466687888 0.0744314939 0.171686947 0.390214533</_>
    <_>
      4.54698944 0.411124766 0.28675735 -1.68827152 -2.7107923
      -0.206379071 -1.4506284 -0.641900241 1.21096277 1.57075047
      -2.08590651 -1.5062108 -0.822722495 -0.751328111 0.72637856
      0.39042601 -1.32348585 -0.624855816 -1.34237254 1.89057457
      -0.606667399 2.04211235 -0.580977857 -0.593325078 -0.0762925744
      -0.542435706 0.233492628 0.392045826 -0.231793076 -0.995479941
      0.672847092 -0.335959136 -0.18521966 -0.97465831 -0.562466264
      -0.16090779 1.6201086 -0.699775815 0.0309637412 -1.10305321
      -0.022782879 0.364078999 -0.613047004 -0.319587022 -0.313545108
      -0.810228229 -0.272853702 -0.0575075448 -0.477975905 -0.461562157</_>
    <_>
      -2.8637712 -5.45923376 1.54881895 -0.10257186 -0.0927373245
      -1.03283751 -0.645457625 0.40291521 1.96529424 0.777270377
      -0.0627641305 -1.17454731 0.0504093952 -0.228867367 1.9374845
      0.103870511 -0.431492537 0.0289756488 1.12586629 -0.652150095
      -0.524441779 0.469028026 0.762187123 -0.790971041 0.177151814
      0.497615993 -0.333270669 -0.322832197 0.0303884782 -0.211773694
      -0.776061535 0.474617332 0.0506181717 -1.01334321 -0.323807865
      0.293547601 0.023269143 0.178740174 0.195947602 -0.445328891
      0.065693669 -0.17803973 0.156164885 -0.252386093 -0.159814373
      0.559647679 -0.178089038 0.203076139 0.426862061 0.978932381</_>
    <_>
      5.19517851 -4.96806145 -0.130330324 2.63843513 -0.736436486
      0.289421111 -0.762184143 -0.235468835 -1.77126396 -0.000204277443
      -0.687563777 0.3904064 1.00721657 0.513737619 0.0624918081
      1.18763423 1.62740183 -0.0125620952 -0.0300232004 0.541599452
      -0.414850473 -0.297561675 0.0311979484 -1.17194259 0.158279285
      -0.472867459 -1.02214515 0.717519164 -0.760085344 -0.0135407066
      0.117229477 0.299176961 0.466128588 0.286194742 0.173229411
      1.10165179 -0.191166341 0.486831486 -0.390111834 -0.641952693
      0.519935369 -0.618557394 0.133240059 0.0738925487 -0.308704764
      0.809144139 -0.160010993 0.236169264 0.0822281912 0.125831038</_>
    <_>
      6.03710461 3.9447298 1.95862174 1.43859088 -0.724043131 1.74813628
      -1.42624676 -1.60954213 -0.573816895 0.773209989 -1.09100544
      -0.803365588 0.425906569 0.360900044 0.668091655 0.129892975
      0.96277523 -0.419262946 -0.287091166 -0.344965935 -0.263137877
      0.475211769 -0.00127937377 -0.385568529 0.937453091 -0.373242229
      -0.2948066 -0.302018583 -0.332480073 0.202049166 0.613983452
      0.754822552 -0.132278547 0.327642292 0.0295187049 -0.395343035
      -0.0710576847 -0.230098069 0.406374186 -0.201508224 -0.17938067
      0.11529848 -0.0534342267 -0.137821496 0.175248563 0.243123263
      0.284242034 0.564999938 -0.0152653912 -0.113607734</_>
    <_>
      7.94360828 2.0936749 0.877102315 1.69729614 -1.2843138 -1.1673696
      0.843829811 2.59761381 -0.0644522756 -1.03353882 -0.943460882
      -0.618233263 0.0990917757 0.321636319 -1.08258772 1.15635991
      -0.12295945 1.91057146 0.113004848 1.09992528 -0.0120755062
      0.0795501471 1.09806919 0.205671594 0.0829493403 -0.123398453
      -0.583013237 -1.00620341 0.951737702 -0.890904069 -0.552190721
      0.398628801 -0.326504141 0.285361111 -0.40917024 -0.195007294
      1.40358722 0.204926133 0.397645772 -0.244878098 0.246868253
      0.0229664724 -0.0936377943 -0.00134713447 0.521103501 -0.329123288
      1.17653739 0.962571025 -0.0258907806 -0.269202918</_>
    <_>
      -0.865423322 2.15940428 7.1476016 -2.76241875 2.98136687
      0.991427362 0.0253517143 -3.03348184 -0.231508553 0.845225036
      1.13228691 -0.815606236 -1.38165605 0.125111714 0.616515398
      1.41703701 1.63654685 1.54401791 1.32420337 1.01678813
      -0.644188464 -0.0900914595 0.119877636 0.6175313 -0.0352791212
      1.45111465 -1.03961945 -1.21971154 -1.50165951 -0.272038102
      0.0865947902 -0.0481453985 -1.18647659 0.718586802 -0.902745724
      0.244981274 -0.417095423 -1.33442748 0.108832605 -0.557947814
      -0.341493636 0.680663824 0.945309699 0.216075465 0.0147490557
      -0.147013098 0.777516127 0.240207121 -0.12529324 -0.0277551021</_>
    <_>
      -5.76966286 1.39419901 3.31334066 -1.06065309 3.17465186
      2.20227528 -0.480148047 -1.13181353 -0.682448149 -1.15842593
      0.647599638 0.00608046027 0.291838974 -0.0730540305 0.119831577
      0.526474357 -0.0750097111 0.394437909 -0.541280985 -0.181061372
      0.326443404 0.0210298244 0.553570092 -1.26295424 0.151419044
      0.507844448 0.0682566836 -0.235922292 1.05199361 -0.211359516
      -0.463639736 0.392397732 0.227936789 1.11607409 -0.0447063893
      -0.607052565 0.0956979394 0.0836222097 -1.23438728 0.166155562
      -0.0779087394 -0.4801085 -0.225017905 -0.0866092816 -0.917091668
      -0.000193510481 0.0743522346 0.0787866712 0.31147337 -0.0269269738</_>
    <_>
      4.64816809 -3.67428803 -2.58487797 1.87006092 -0.478882164
      -0.656252086 -0.262320578 -0.854208171 -0.93464154 -2.09010458
      1.41601467 0.258861035 0.0989795476 -0.882317305 -0.792993903
      2.42697024 0.403146446 -1.65765488 -1.04831088 0.652736008
      0.450350642 -0.0747368783 -0.13614814 0.127172053 -0.955705464
      0.364376575 -0.435377389 -1.36105072 -0.922913492 -0.560573995
      0.571750462 -0.123002827 -0.918733835 0.788357735 -0.123997115
      0.190934703 -0.634481609 0.0378777906 -0.0541923456 0.601950049
      0.824100852 -0.322387427 -0.750048637 0.490058511 -0.230833068
      -0.535299182 -0.897733927 -0.155176625 -0.387317568 -0.883193791</_>
    <_>
      -14.2394638 0.254754215 -1.3669188 0.200086996 -1.5160408
      -0.125988126 -0.882653058 0.346326977 1.23741066 -1.88565278
      0.171141237 0.124907129 -0.0509976782 -0.213635489 -0.219333857
      -0.181831598 0.0726039037 -0.565392137 -0.202728614 0.236450121
      1.02968132 -0.199360326 -0.418351918 -0.227027759 -0.955817044
      0.028268503 0.200982004 0.33607772 -0.587733507 -0.0532530434
      0.415923059 0.269159526 0.124645546 0.5363729 -0.408068836
      -0.246374428 0.274111986 -0.260712713 0.714637458 0.212336987
      0.415127844 0.310436517 -0.149098068 0.0543394461 -0.289345175
      -0.396660268 0.336434871 0.00466274144 0.648873985 -0.0615110137</_>
    <_>
      6.3959465 0.614489794 0.921913147 1.19908798 1.52323425
      -1.29108584 0.307010263 -0.231035963 0.164546818 1.02399564
      0.547463596 -0.305968791 0.323619157 -0.765099168 -0.107588992
      -0.115026221 0.554849625 0.603242159 0.132139698 0.287861288
      1.25577509 -0.0609181151 0.740892351 0.572405577 0.0140796062
      0.875092328 1.04645324 -0.300863385 1.1975199 -0.0803811401
      1.23863232 -0.109265201 1.45003462 0.2217841 -0.0220844671
      -0.683109522 1.14491248 -0.973173738 -0.79069984 1.33339953
      -0.411239505 0.326809108 -0.184650123 -0.0637190044 -0.21502915
      -1.0692426 0.0119046522 0.455510616 -0.129894376 -0.253232598</_>
    <_>
      -8.71107006 6.76684284 2.84748244 -1.57397759 0.602903903
      -3.07052493 -0.704614878 -2.16808891 2.0585525 2.86658525
      -1.23152077 1.52748322 -0.565330327 -2.92827582 -2.27605367
      1.01170921 -0.513737321 -0.753123879 -0.222301647 -0.239624277
      0.0234519318 -0.917063057 0.897301555 -0.38984406 -0.0400921702
      -0.351620406 -0.370807052 0.634988308 0.497934341 0.943341732
      0.268528432 -0.65086025 0.102700748 -0.596693397 0.378877491
      0.0960464403 -0.427281916 0.542061925 0.152247965 0.242609531
      0.0507109165 -0.186257288 -0.237950474 0.131476909 0.646114767
      0.305117369 -0.0310289487 0.260724545 -0.43311128 -1.02034092</_>
    <_>
      9.14224911 1.87251425 1.91009486 -0.370533645 1.45247674
      -1.5130862 4.26124763 3.8053062 -1.00917721 -0.293857753
      -2.03300214 -1.00888872 -0.0634730607 0.963291228 1.63727582
      0.00233902712 0.119396411 0.419664145 -0.276510149 1.14858115
      -0.134755522 -0.35404554 1.32269526 0.0779606923 -1.51896584
      -1.43535829 -1.38365459 1.44266868 -0.231794849 0.270911455
      -0.154111817 -0.464756906 -0.0583008379 0.603423297 0.326666772
      0.306942374 0.142988488 -0.905998349 -0.37663579 0.781060696
      -0.515519321 -2.06028557 0.580557704 0.0868597701 -0.658672512
      -0.0618671887 -0.657971859 0.39954412 -0.330526054 0.504925549</_>
    <_>
      1.83873463 -2.13892484 -1.98844981 2.31338668 0.0996652991
      -2.44817519 -0.312264949 -0.924075186 -3.15280342 -0.154864579
      -0.0409319811 -0.713623583 -0.154608205 0.263026685 -0.137513295
      0.797396839 -0.436599404 -0.896998107 -0.0974390134 0.185239568
      1.28389013 -0.621600866 -0.609284043 0.431558222 0.280125082
      1.10481262 -0.00845142547 -0.597503901 0.0961440653 -0.147063345
      -0.464420587 0.664779902 0.869538248 -0.0763270855 0.115264766
      0.389060855 0.0779517069 0.431408554 0.372609258 0.230728462
      0.326093465 0.395699531 0.240473673 0.264568925 -0.353153825
      -0.662402153 -0.136838064 0.490337402 -0.772815168 0.640205085</_>
    <_>
      6.77906895 -0.870725393 -0.136527464 -5.27787495 3.08921957
      0.632684708 -3.26680446 -3.44256949 -0.962426126 -1.38984179
      -0.28373456 -2.08332253 -2.01964045 -1.21032679 0.0551977269
      0.00725629134 -1.00569296 0.099846743 -1.75685918 -1.42653644
      1.26910138 -2.0594089 -1.09038317 -0.351861924 0.355749995
      -1.26082313 -0.0681695044 0.238921225 0.928815305 -1.16018057
      0.0201931559 1.2934953 -0.329572737 -0.332573712 -0.576953471
      -0.205375791 1.18375146 -0.329801798 0.873010457 0.0874689296
      -0.363552123 -0.356081694 0.00450952817 -0.182481021 -0.271715283
      -0.451920509 0.118483365 0.690867782 0.676311791 0.165409833</_>
    <_>
      -1.45300627 0.445555776 0.565887868 -0.498637259 -2.22925568
      -0.503024876 -0.748181522 0.51791358 0.674046636 -1.17173183
      0.183602229 -0.429862589 0.180794239 0.11353606 -0.513272524
      1.17655623 0.566766739 0.479190707 1.06717956 -0.27853784
      -0.544880331 -0.310107261 1.27276075 0.230619058 -0.655713916
      -0.38069278 0.313268214 -1.09060287 0.429767638 0.179595619
      0.160787746 -0.847398758 0.874804139 0.53950578 0.426036775
      0.140779555 0.0568813905 0.974587739 -0.512345433 -0.273773789
      0.13598232 0.869702935 -0.273709923 0.197419301 -0.404808164
      -0.0462740436 -0.113978103 0.390669703 -0.538263679 -0.136936173</_>
    <_>
      11.7821302 3.76615262 1.49588513 0.532504797 1.06957793 1.66215444
      0.751589239 0.783715904 -1.10995841 -0.439295977 -0.775255561
      -1.669788 -0.707355857 -0.487051368 0.937639236 0.492989749
      -0.599192798 -0.129872829 -0.427944809 0.0899344608 -1.23836339
      -0.123332128 -1.0270009 0.80485934 0.677051842 0.870978653
      0.314252585 -0.8153916 0.107441694 0.729421556 -0.199347124
      -0.986703992 1.27744293 -0.373327225 0.756222486 -0.810447752
      -0.23816146 0.675091088 0.410771638 0.154597834 -0.868489683
      -1.29768252 0.75049901 -0.814629197 0.436682224 -0.284856021
      0.892275751 -0.0912286639 0.719820857 -0.0412167758</_>
    <_>
      1.17983067 -1.21922588 -2.151335 0.166077986 -2.23556948 -1.025141
      1.57756007 -1.09085095 -4.58542824 -0.526377857 1.33055854
      0.20934163 1.08568311 0.911767244 1.24912572 1.03965759
      -0.256515712 -1.07094991 0.674538553 -0.0539798066 0.230208889
      -0.138502672 0.00098604348 0.166806355 0.487297833 0.970007181
      0.30650723 -0.0901835188 -0.615667045 -0.405886889 -1.4136678
      0.226016998 -0.171964571 0.270284325 -0.1208295 0.826495111
      0.237890974 0.50393796 -0.304429621 0.0482223332 -0.569580257
      0.246197104 -1.0775907 0.558249176 0.285319358 0.104793094
      0.474434316 0.181820169 -0.485603333 0.126997769</_>
    <_>
      0.890548825 2.03774261 -3.33347201 5.17886543 -1.27460527
      2.96472502 -2.51790023 -1.38007426 2.2054975 -1.2208885 1.47833395
      -0.969876647 -0.918582082 -1.36037731 0.189455017 0.362111002
      1.13968837 -1.22838378 -0.499845356 -1.2446444 2.1427443
      0.244146541 0.783249021 1.14267421 1.48767197 -0.121730991
      -0.341260433 2.19338989 -0.833582878 0.678541243 -0.765987575
      1.00901985 -0.199290127 0.632615268 -0.217836544 0.645953774
      0.860233366 -0.217724785 0.253407121 -0.501183271 -0.256905884
      -1.30455518 0.446678191 0.464233547 0.612268627 -0.661432624
      -0.0153948963 -0.0426208191 -1.02358031 0.108615942</_>
    <_>
      -14.4200439 1.63930464 -0.209071919 1.09936428 0.200014442
      -0.43492493 1.13145113 -0.265435129 1.1212523 -0.48459506
      0.0994314998 -1.33305383 0.0121552609 0.929392934 0.846227527
      0.0138998507 0.656965792 -0.0245642774 -0.00622461783 0.388090044
      0.0142732617 -0.290509731 0.367920488 0.323682934 -1.01872706
      0.0890793726 0.0890688226 -0.511070669 0.352890253 -0.340083092
      -0.647012353 0.232542321 -0.550656676 -0.0386338122 -0.277620077
      -0.0252779685 0.731882989 0.569970012 -0.00086461351 -0.85775274
      0.268570691 0.248651922 0.161606327 -0.0546739846 0.191263333
      -0.128789082 -0.751481831 -0.391364425 0.326924473 0.0804503486</_>
    <_>
      4.16512108 -1.34221029 4.07418346 0.986033678 -2.25546622
      1.57901669 -0.426841408 -1.3786478 1.20280051 0.855313718
      -2.91130209 0.215634152 0.216599703 -1.5958693 1.96576357
      -0.0066739358 -2.22629523 -0.349342436 0.248149186 0.00724084815
      -0.157427311 1.48645985 0.192201585 -1.25798798 -1.07903504
      1.42727518 -0.396414071 -0.02962818 -1.09075916 0.351177663
      0.329343975 0.813167632 -1.35069728 0.738954782 -0.0185459815
      0.176424682 -0.165173024 -0.236129105 0.226165444 0.716788709
      -0.368295789 0.124664091 -0.824121058 0.118603721 -1.70239437
      -0.789210737 0.810523272 -0.248169899 0.0936522335 -0.604951322</_>
    <_>
      11.02596 -2.94228578 -1.17988467 1.78749537 1.25393724 1.10586345
      -0.00797639787 -0.710407734 -2.11328721 0.376664162 -1.5573318
      0.897979558 2.54399467 1.0813992 -0.403771073 1.41058815
      0.735445499 0.581623554 -0.325873315 1.50437152 0.0339820758
      0.55708164 0.102987975 0.131848976 -0.302777141 -0.252723157
      -0.291346371 0.203333005 0.383501977 0.633614361 -1.3527962
      -0.301461995 0.175188884 -0.339402825 0.877882242 1.12051642
      -1.33583939 0.24173595 0.108589612 -0.0705518797 -0.0529432669
      -0.21184893 0.255241126 0.00140260346 -0.559135795 0.261946678
      -0.579718828 0.301581711 0.0642308444 -0.574149251</_>
    <_>
      5.09999609 -0.72427398 3.42122602 -0.52947706 1.37648249
      -1.69692254 0.328244239 0.0448049605 -0.695060074 0.0540807955
      0.911471367 -0.219859332 -0.950985551 -1.85963392 -1.2717495
      -0.870301008 -0.796930134 -0.114413001 0.333689541 0.166358903
      1.2760874 0.619256258 0.205481738 -0.23553367 0.556788504
      0.50541532 -0.0129252812 0.00475225132 0.200223863 0.595462441
      -0.325503051 -0.240619287 0.335449398 -0.795397639 0.132207751
      -1.2628026 0.296834201 0.587116957 0.0464418679 0.181125194
      0.117551424 0.486502707 0.338166744 0.563887358 -0.353235781
      0.224253684 -0.501800478 -0.187956244 -0.123349242 -0.597188711</_>
    <_>
      -11.5536604 3.25362611 1.63581419 1.14795148 -1.32109451
      -3.80469441 -1.14926422 0.772261322 1.2540704 -2.00230885
      1.32228303 -0.206840888 -3.13470387 1.39235711 2.37934208
      0.332322359 -0.129175425 1.9753207 -1.65107596 0.396219283
      1.95613253 -0.0238255169 -2.11514521 -1.39125431 -1.83802366
      0.175677642 0.634043097 -0.553681314 0.502378643 0.79640907
      -0.135888785 -0.367389381 -0.84839797 0.85935384 -0.125474975
      0.0397477746 0.0344358385 0.380925536 -0.647953212 -1.08343995
      0.120424084 -0.812687814 0.860235095 -0.144414842 0.319252551
      0.832650542 0.277467668 0.215325207 -0.931187689 -1.0843842</_>
    <_>
      4.02251148 1.76723886 3.02119398 -4.26489496 -0.212237045
      3.00131965 -1.03495395 -1.80428362 -0.738614678 -1.41182613
      2.43371677 0.892631948 -1.85709631 0.536964953 0.208967119
      -2.08408642 -0.302131146 -2.06164765 1.11931503 -1.64228714
      -1.68483925 -0.0255482774 -1.10555685 1.77294159 -1.24207914
      -1.33843899 0.394356161 -0.0197591837 0.739539683 -0.26804769
      -1.02351224 0.241601869 -0.259083569 0.861040771 0.911164284
      0.760363877 -0.623364151 0.659238279 0.570155025 0.164234072
      -0.84349966 -0.261393309 -0.725137472 -1.0821836 -0.883568943
      -0.70172137 0.0157593135 0.0764305219 -0.412800252 -0.415068626</_>
    <_>
      -7.52630663 -2.7951591 0.802045345 1.09198928 1.21193361
      0.418306977 -1.36687911 1.26672232 -0.00754086021 -0.477923572
      0.752812266 0.919844091 0.632992804 0.206262112 -0.35389778
      0.322365224 -0.0278479829 -1.31581318 0.0134432148 -0.62049979
      -0.0275824256 -0.0465597659 0.259362996 0.265052736 -0.139933392
      0.120854467 0.440011233 0.638224363 -0.221980199 0.0526232757
      -0.262483448 0.467419893 0.226758748 0.0413539931 0.297328353
      -0.196863443 0.121160179 -0.331556052 -0.422099173 0.174960688
      -0.371017367 0.0307148956 0.338709414 -0.017178813 -0.225034967
      0.508960247 0.360224098 0.208838373 0.0748410225 -0.354474932</_>
    <_>
      5.82981586 -1.26786339 2.91434932 1.59845734 -1.19516039
      -0.111525178 -2.17351103 -1.03110659 1.02576721 -0.316193908
      0.724660277 0.359245688 1.00185549 0.685917079 0.25830096
      0.154573515 0.484250516 0.261658847 -0.559904873 -0.963031471
      1.62180412 0.242605522 0.891708136 -0.476462573 -0.177740097
      -0.229031146 0.221089169 -0.116056666 -0.55168277 0.525301516
      -0.786540866 -1.2432307 0.663118541 -0.562269688 1.52842522
      0.496333033 1.10502553 -0.125255913 1.53466487 -0.532225907
      0.312802106 -0.546965063 -0.219083115 -0.498034269 0.0977633595
      0.384032786 -0.137358025 0.0191786028 -0.125506774 0.0328689851</_>
    <_>
      -9.62313175 8.44871807 6.05589914 -1.68269491 1.31171584
      -0.875275314 -1.08321738 -0.136072651 1.09280109 -0.515296519
      -0.624345541 -0.630641997 0.653770089 1.22128022 -1.05348206
      0.126055464 -0.0876654014 0.402121127 0.0987054259 -0.577666163
      0.284371614 -0.835487247 0.47283408 0.383500904 0.843949139
      0.0979314074 0.000209586229 0.836285412 -1.122805 -0.257048965
      -1.01524782 0.311962098 0.0698121637 -1.06634593 -0.154609919
      0.238849774 0.3668212 0.0758626387 -0.566775203 0.112130515
      0.447265327 -0.102526926 0.0835732743 -0.582662106 -0.645926952
      -0.490976274 -0.537800312 -0.474483639 -0.435308665 -0.0101230647</_>
    <_>
      -11.6442804 -1.98056018 -0.494309336 -0.653504848 -0.0464627892
      -1.58788538 -1.99713469 0.164002046 1.50937879 -0.848169446
      -0.59602344 -0.184786588 0.616083682 0.0163083468 1.21814966
      0.362004787 0.108396016 0.0589441955 0.099064678 -0.446705282
      -0.549890161 -0.345847309 0.704389036 -0.084525831 -0.124978833
      -0.283028126 0.187900588 0.280597001 0.103911728 -0.215455294
      0.714719057 -0.0935188979 0.535206497 1.01122236 -0.46032086
      -0.436365277 -0.28418079 -0.0542714559 0.364391863 0.306836456
      -0.413967073 0.174989164 0.199480727 -0.0332525447 0.180169374
      0.0508908331 -0.0699051321 -0.17804417 -0.128582761 -0.152541354</_>
    <_>
      1.9398936 -0.239165917 1.64587343 1.41069746 0.239293978
      0.139697552 1.23162961 -0.346086174 -1.23221684 -0.11816214
      0.538816273 -0.379424602 -1.56634378 1.24891043 -0.0212023575
      -0.170266911 1.52257466 -0.293975115 -1.00181508 1.22577643
      0.62530756 0.391468883 -1.16339326 0.00283423252 0.260825574
      0.761174917 -0.207675204 0.0433420092 1.00366342 1.10306001
      0.784866333 -0.00849652104 0.523539841 -0.727003455 -0.306538612
      0.171064362 0.586042881 -0.039674025 -0.45397678 -0.275974274
      0.0323969424 0.987031639 -0.234995946 -0.0238215048 -0.511481762
      0.173721671 0.0245156344 0.410203189 0.237671971 0.561934173</_>
    <_>
      8.61445141 -1.5628953 0.253972203 -2.77253151 3.57703185 1.0739361
      -4.19691324 -3.87094378 -0.878216386 -1.35055411 -1.18021405
      -2.39837313 -1.15632284 -0.612449586 0.534978807 1.71535003
      -2.22715259 0.77751255 -0.457718849 -0.330107659 -0.00734255835
      -1.08260489 -0.171727881 -0.914715886 0.43950665 -0.868450642
      0.408986419 -0.00576867443 1.03125083 -0.577955246 0.851117015
      0.418575108 -1.04916465 -0.0185659379 1.30813599 0.303993404
      0.366773069 -0.298726887 -0.0759143606 0.34964478 -0.0678809881
      -0.293228656 -0.336354136 0.598037004 0.228300869 0.159852758
      0.148018733 -0.360014141 -0.0760365725 0.583717883</_>
    <_>
      -2.18153858 -4.09734964 -1.63683558 -1.2775439 -1.46537542
      -0.636646688 1.2297467 -2.49133182 0.20182842 -2.04360461
      -0.463068575 0.8145172 -0.338724226 1.34907269 -1.62442911
      -0.164113238 -1.27164555 -0.283882499 0.0626353025 0.0830853656
      0.319109708 0.504096806 0.212887287 0.28874588 0.471004874
      0.123163208 -0.272821724 0.368557632 -0.316614419 -0.320701599
      0.826707423 0.625405014 0.489777803 -0.389788955 -0.11639452
      0.250213921 -0.0174219906 -0.0885057002 -0.453348458 -0.737057328
      -0.0105742319 -0.535477936 -0.104297809 -0.00771450996
      -0.243624866 -0.178754598 -0.131041244 -0.263895601 0.258275717
      -0.0241852589</_>
    <_>
      7.98065805 -1.09990382 -0.73752135 -4.40642643 2.81414127
      1.51062214 -3.50212336 -4.01268244 -1.5829736 -1.85603356
      -0.502069533 -1.73654902 -1.14176655 -0.0403420664 -0.151072249
      1.20241904 -2.46809459 0.590393841 -0.038659282 -0.675071061
      0.554830968 -1.69328594 -0.370388389 -1.49706388 0.37067619
      -1.23490179 0.595522463 0.0489865281 1.74091017 -0.392388344
      0.680097044 -0.187067419 -0.416491598 -0.44679603 0.167159379
      -0.134056896 -0.209075287 -0.597340763 0.195143715 0.381308019
      -0.173353121 -0.260237634 -0.715168536 0.334858835 0.353820533
      0.234499887 -0.126232982 -0.0240079816 -0.159405157 0.4772802</_>
    <_>
      -9.07616138 3.56694007 2.37885046 0.882678628 0.0795417428
      -2.00892925 0.963923454 -1.44206345 0.206842139 1.80715394
      -1.96914446 1.16093588 0.100973509 -1.97503769 0.592877328
      0.53599292 1.35259104 -1.11684012 -1.10966384 -0.529147208
      -0.0793212354 -1.03299761 0.918580651 0.532757103 0.00490512745
      -0.289176255 -0.859526277 -0.922857106 0.914230347 -0.476083815
      -0.462490916 -0.452763617 -1.13309634 -0.167349443 0.27004841
      0.578763306 0.203438506 0.33783415 -0.446911961 0.1619315
      0.0746858418 -0.262466311 0.309265763 0.108971767 -0.100313142
      0.515461624 0.174282342 0.536258221 0.403891265 0.673172951</_>
    <_>
      -0.296231121 -1.38176167 -3.90644193 -0.480940342 2.65959024
      -1.43308735 0.961645842 -1.28354681 -0.961287379 -1.19408703
      -0.837292492 -0.421233714 0.105527833 1.43606055 -1.19694674
      -0.76654321 -1.1018784 1.09245229 -0.114123486 0.444391131
      0.0353014804 0.0953965411 0.431260496 -0.616189063 1.07271886
      0.199328378 -0.961237788 0.540499747 -0.173049986 0.464133739
      0.218037158 -0.134030551 -0.528674364 -0.982616186 0.109507807
      0.47866416 0.147130862 0.257174134 0.835382581 0.0251351371
      -0.92216593 0.921146989 1.11410403 -0.442027301 0.0897680596
      -0.647042096 -0.371676713 -0.206120834 0.52779305 -0.0601324514</_>
    <_>
      5.47348833 -0.466859519 2.13549781 1.45314026 -1.93913114
      0.32953006 0.561204195 1.40130401 -0.343685001 -0.64701128
      1.37948799 0.814985871 -1.80939341 1.37248468 -1.05694866
      0.931283832 -0.906605065 0.764017224 -1.25912881 -0.918865025
      1.32263374 -1.1131525 0.0490312539 0.345162183 0.293920845
      0.157261223 -0.755914867 -0.199416101 -0.671427906 -0.486650616
      0.0756485686 -0.640586793 -0.752637804 -0.736764252 -0.280929685
      -0.321474046 -0.858746648 0.406638265 0.340031058 0.0455989912
      0.185335964 -0.588585258 -0.558868229 0.605691552 0.818928659
      0.0542210788 -0.131688252 -0.272006243 0.079936631 -0.451060206</_>
    <_>
      7.04609728 6.5610652 -1.88011837 2.46000934 0.713170111
      -0.410051584 1.56573176 -1.64838088 -0.570093751 -1.23428333
      0.120806374 2.16572785 -1.01532388 -0.250114828 -0.511916101
      1.17519951 0.631113172 -0.396549165 -0.722147644 0.825594962
      -0.155054986 0.230230615 1.35008562 -0.621732712 -1.12088692
      0.797822416 0.316322774 0.0466370806 -0.500885904 -1.1131928
      -0.598689318 0.341756821 0.968416095 -0.554199278 -0.465790212
      -1.01540792 -0.396556437 0.266788214 0.611604393 0.0403164998
      0.488651186 -0.222891539 0.34174335 -0.0625714436 -0.210020021
      0.491499007 0.223579422 -0.487562329 -0.0766714141 0.0510432459</_>
    <_>
      -18.1901398 -1.07665634 -1.41024315 -1.04698634 1.36275017
      0.971596301 -0.695800483 0.506286442 0.782715678 -0.532915652
      -0.100797854 -0.0247764084 0.636327922 -0.821670771 0.270828515
      -0.257451952 -0.406482846 0.140497208 -0.568197608 0.124605216
      -0.573708475 0.595280409 0.221688777 0.293745607 0.394454181
      0.213682577 -0.153579637 0.674359143 0.733525455 0.175467059
      0.40642184 0.545648694 0.750193834 -0.95042038 -0.291570753
      0.320248514 -0.448036462 -0.258806854 -0.0925325006 0.471477598
      -0.443237633 -0.109630786 -0.234992757 -0.407911986 -0.0673907995
      1.24753499 0.436949909 0.520660222 -0.453752458 -0.378540933</_>
    <_>
      -8.01130009 8.07577133 1.59920681 0.150818542 1.52903163
      -1.14488816 -0.0481047779 1.09121394 -1.00916767 0.19974488
      -1.53777051 -1.74542999 1.39954174 0.580474973 -1.19809759
      0.633554518 0.939795077 0.367399842 0.282214642 -1.20739889
      0.404391766 0.385501027 -0.319169134 0.0079742847 -0.250865012
      0.378843546 -0.0366431996 -0.0686406791 0.249435008 -0.466820121
      -0.972770691 -0.274499118 -0.062805824 -0.904607058 0.318823069
      0.0508075505 0.153436854 0.00492307357 -0.163107395 0.0747667402
      -0.236007258 0.238043696 0.112931244 0.193419725 -0.537371874
      -0.480858058 0.104729712 -0.40048331 -0.344193369 0.126408458</_>
    <_>
      5.90518856 8.37703705 -3.48883033 0.159941152 0.502662241
      -0.487765193 -0.235903591 0.714412212 -0.400159031 -1.67259765
      0.245351195 3.50261211 -2.64434004 -0.7037341 0.226550043
      -0.287493259 -0.168403462 0.0362267345 -1.13058019 -0.276843578
      -0.588523388 0.433832467 1.13988578 -1.7195797 -0.609379888
      0.98301816 -0.189261347 0.327915221 0.566407323 -0.76815635
      -0.36117667 0.0353394225 0.471977711 -0.0519987941 0.563207984
      -0.088434577 -0.151454732 -0.441377133 0.176748604 -0.456341058
      0.29280141 0.0370145515 -0.131105855 -0.0762388036 0.34408164
      -0.151452914 0.478004873 0.464000702 -0.228935182 1.2168808</_>
    <_>
      -10.3739986 -1.6787051 -2.07222652 -0.715630352 0.697243869
      0.708078682 -1.28673887 1.89289498 -1.1951896 -0.0726362616
      -0.516131699 0.00386715471 0.244611114 0.600215495 0.617206037
      0.681149244 0.27737543 -0.0384393781 -1.09701908 0.0832008943
      -0.452371985 -0.845378578 0.201081648 0.985313535 0.152738541
      0.435345918 -0.170529932 0.403136551 -0.184757546 0.332781732
      -0.617851794 0.655834675 0.513126135 0.267020226 0.453578323
      -0.626531661 0.210162342 -0.149447605 -0.00969615579 0.0772583708
      -0.243259951 0.176266626 -0.556575358 -0.348204434 0.0112026455
      0.0725569427 0.120736554 -0.507568896 -0.0182038005 -0.0308556408</_>
    <_>
      3.90554595 -1.42681229 4.01347637 0.783946812 -2.4348166
      1.49320924 -0.248182595 -1.14881206 1.24564326 0.670176268
      -3.16604948 0.161790892 0.300290406 -1.54415977 1.91410565
      0.133159801 -2.13721251 -0.274481982 0.366004556 0.0271444805
      -0.328267097 1.52792192 0.253081948 -1.36595225 -1.15673733
      1.14188206 -0.379681498 0.187594876 -1.31119728 0.275093913
      0.515314281 0.823976278 -1.31266785 0.708340585 -0.058251746
      0.290438265 -0.0114837075 -0.204063177 0.142313018 0.631267369
      -0.387877196 0.241518348 -0.912676632 0.243911624 -1.58166683
      -0.687844515 0.831406653 -0.227597013 0.0494758599 -0.636443555</_>
    <_>
      4.34388638 -0.162280813 0.274193019 -1.99642718 -2.59222746
      -0.985836983 -1.75433266 -0.143304035 0.662306488 -0.505507052
      -0.404166222 -0.0846663415 0.942798316 0.106924713 -1.47766185
      0.969857872 -0.099255845 0.4337008 -0.193991825 -0.808423936
      1.56503439 -1.187168 0.048782967 0.533892155 0.161077902
      0.224291101 0.225491792 -0.588093519 -0.302767783 -0.617978275
      -0.0551749617 -1.51108837 1.40116763 0.183021337 0.173665389
      -0.184891909 1.75125456 -0.946051717 0.541227639 -0.549940109
      -1.0489614 0.0749456659 -0.0642631873 -0.237418666 -0.300768465
      -0.254939049 0.082937777 0.774140775 0.567153215 -0.163572252</_>
    <_>
      7.64463568 -2.16606426 1.63049972 0.105718516 2.13649797
      3.49228311 4.62674093 -1.28187335 2.22452307 -0.670323312
      0.573300719 -0.91137594 0.87120527 0.888299286 0.66990608
      -0.0921609998 1.45509517 -0.291181952 -0.529391468 -0.39055863
      0.202450559 0.153024182 -1.34263408 -1.52046227 1.63644767
      -1.27968824 1.71692157 0.078451395 -1.23952019 -0.283070087
      -1.71540272 -0.51310432 0.167565003 0.800622642 -0.602925301
      0.549941182 1.42882168 -0.932299256 1.02552199 1.24967599
      1.19018328 0.613375843 -0.232105404 -0.528791726 0.220019117
      0.877087474 0.407045722 0.100225717 -0.434554487 -0.340007633</_>
    <_>
      -3.80523229 -1.23425317 -5.80663157 0.878960311 2.98077273
      2.31116343 0.89654386 0.771766961 0.201988399 2.68892407
      0.0715739205 0.612974703 -0.672226787 1.06504059 -0.920794964
      -1.24105561 -0.421397358 0.299252093 -1.10576725 -1.30315423
      -1.76850164 -0.81228596 0.799728513 -1.1201601 -0.551708877
      0.747762859 0.0419136882 -0.146890879 -0.674066007 0.0117590819
      -0.277856201 -0.385242492 0.150773749 -0.467332363 -0.0488206111
      0.521310329 -0.201985255 -0.0553822331 0.0397048891 0.0473766625
      0.248251796 -0.00728053413 -0.0212718267 0.612698734 -0.218595386
      -0.321250886 -0.155771077 0.445655018 -0.180065826 -0.399245024</_>
    <_>
      2.78276658 -0.655784607 1.30310404 0.869523883 -0.150027141
      -0.227970392 1.99050415 0.0074283015 -0.825036943 -0.874876142
      -0.738708735 -0.149389252 -1.78735673 1.56395054 0.243316293
      -0.251026869 2.30950689 -0.428469658 -0.698476374 0.454612911
      -0.559101939 -0.30468896 -1.9846853 0.025166139 0.502486229
      1.16462886 -0.284353644 0.133705422 1.14874959 0.5380463
      1.37138796 -0.754337966 -0.176333562 -0.4336631 0.37224555
      0.655863106 1.30895078 -0.109305166 0.112651557 0.105715081
      0.472712517 0.786583304 -0.518356025 0.542863786 -0.10485968
      -0.0812929124 0.155225709 -0.165856749 -0.111883715 -0.205012634</_>
    <_>
      -1.81471324 -2.18327737 2.05247808 1.48339379 -2.26544356
      1.89738142 -0.136584654 0.131779 -1.33986616 0.795810163
      1.48406744 0.876558483 -0.595705569 0.197770327 -0.612819612
      -0.19931981 -0.590404451 -0.269273907 -0.0138361426 0.0438858792
      0.907965422 0.213136211 -0.069501169 -1.09492159 -0.552524745
      -0.594533265 -0.19317323 -0.265871376 -0.210329086 0.198584288
      -0.138481155 0.172101468 0.940645039 -0.256049514 -0.0624378845
      0.0125315534 -0.405148298 0.174201414 -0.151180804 0.424666852
      1.25867021 -0.146981999 0.0955030099 -0.485835552 0.155773208
      0.378883719 0.0447912514 0.142521515 0.0549930297 0.656978548</_>
    <_>
      -1.71996701 -0.63233918 -4.72226524 0.42284748 3.93136215
      -1.57607949 -0.103615016 -1.60017276 -0.104809441 -0.962749004
      0.00431447895 -0.905753136 -0.214715496 1.24724936 -2.14371896
      -0.810687482 -1.2874161 1.18688023 0.283140689 0.0296042711
      -0.55632931 0.128789321 0.0999949947 -0.275146544 0.119577482
      -0.375828117 -0.73850745 0.941279233 0.229353398 1.08473718
      -0.290421396 0.0917671695 -0.419045776 -0.664907753 -0.00405074516
      0.550729454 0.501565039 0.397104084 0.68883884 0.120424628
      -1.13718736 1.05353487 0.982551336 -0.346207619 -0.0257987753
      -0.548716366 -0.194523275 -0.270625263 0.405498683 -0.177842513</_>
    <_>
      5.86538601 -0.219786465 3.64578557 1.25875032 0.733882487
      0.888426363 0.954898238 -0.299183756 -1.66004705 -1.55151916
      0.769244015 1.30174243 -0.0059712152 -0.865636885 -2.56114531
      -0.66888082 0.747566044 -1.08046496 0.602867663 0.205141515
      -0.246540263 0.187620476 -0.492272645 -0.0428956784 -0.0484254062
      -1.16220188 0.313647211 -0.472809941 -0.0814862251 0.687766671
      0.005343155 0.311266452 -0.0233166143 -0.794683397 -0.579770088
      0.304201871 0.0759157166 -0.465570778 0.389618129 -0.933705091
      -0.334329069 0.084578611 0.363170207 -0.747810125 -0.411900938
      -0.138951391 0.0495639481 0.189503148 -0.762578309 -0.039379511</_>
    <_>
      8.1692915 -4.57115269 -2.24238276 -1.40376377 -0.748739839
      0.98211807 -0.0712619275 -0.690717161 1.7595191 -0.528524816
      -3.57477069 1.03826261 2.20270777 1.87466478 -0.477668613
      0.640093148 -1.20981669 -1.0564667 -0.835556626 -1.26529109
      0.909269929 0.729056001 -0.191334933 0.628531635 -0.952455282
      1.12118733 -0.00283015799 0.793853641 1.01410854 0.97573632
      0.593737006 -0.869121253 -0.0740924925 1.058061 0.375778139
      -0.476184517 -0.90784061 -0.570638657 -0.742522836 -0.482191861
      0.724399149 1.19078195 0.377507806 -0.405804455 1.33376753
      -0.312253118 -0.307006776 0.555928886 -0.476128548 0.283957005</_>
    <_>
      -9.68886757 9.1491909 5.4462676 -2.62617588 1.47101033
      -0.577956498 -1.25177789 -0.165427774 0.977126479 -0.518456578
      -0.649790585 -0.114541121 0.978937864 1.28591704 -1.06072342
      0.218799055 -0.545541704 0.411965519 0.281215847 -0.277136475
      0.477178097 -0.674214303 -0.37503919 0.20191671 0.909014285
      -0.13036643 -0.177826449 1.0271734 -1.46487916 -0.276717693
      -0.586534202 0.124227166 0.156683564 -0.825078785 0.0369461328
      0.0182962343 0.412698507 -0.400692582 -0.741726935 0.0089517599
      0.508702219 -0.106944948 0.506558001 -0.234687999 -0.573505163
      -0.609220684 -0.492281824 -0.466206908 -0.342977166 0.16456157</_>
    <_>
      2.75809836 2.30904746 -1.48824954 -0.687619328 -1.90717328
      0.974079609 1.70224321 0.914493978 0.159893021 0.602837205
      -0.156258419 -1.54783094 1.31817496 -2.29048038 -0.192120895
      -1.56306851 -0.94621861 1.71099067 0.256593764 0.182457253
      0.133173823 -1.25478387 0.652682662 -0.553131402 -0.00956838857
      0.645789266 -0.124999948 0.662989855 -0.304828435 1.37875772
      0.698853612 -0.057607647 0.471344113 0.118977524 -0.0601920448
      0.107691094 -0.54572612 -0.34911254 0.0193094313 0.00480031502
      1.17707229 0.40495187 -0.973480821 0.0550588295 -0.0614517704
      -0.287885219 -0.00733355805 -0.673943043 -0.973828495 -0.224096492</_>
    <_>
      10.7307463 -3.55651236 2.60906506 -1.10661459 2.57032084
      2.44938207 -1.04921591 1.88622224 0.879547417 -0.890845239
      -0.28421098 1.06336355 2.79538751 -0.645538151 -0.59163034
      0.0237484239 1.74477816 -0.0677212477 0.00623465469 -1.22516096
      -1.1293112 -0.459409922 -0.210901558 -0.342728555 -0.522907913
      0.0544314124 0.230675831 0.523579061 0.254764706 0.126749277
      -0.100335672 1.43304896 -1.45004904 -0.659856021 -1.38893628
      -0.962023258 0.880049586 0.382109821 0.236680806 -0.209133461
      -0.164681509 -0.338161618 -0.242967606 0.297675997 1.34978688
      -0.363547921 0.0660706833 0.576955199 -0.107927598 0.484082878</_>
    <_>
      2.27641416 -0.562961996 1.55181539 1.0140934 0.283898562
      -0.497914374 0.808079064 0.678240061 -1.00127578 -0.599952579
      -0.278766811 -0.263042897 -1.526034 1.40237331 1.70435786
      -0.134789824 2.55241847 -0.303578436 -0.393277615 0.0698959902
      -1.0224874 -0.230052769 -2.08360171 -0.423344284 0.041099973
      0.750418246 -0.975070596 0.846176505 1.38665235 0.137655243
      1.38244021 -0.891693175 -0.39969036 -0.818562627 0.0532251112
      0.373992145 0.985833347 -0.155983865 -0.140018255 0.0457036309
      0.940351605 0.462954074 -0.35105443 0.694762528 -0.591395199
      0.363835901 -0.451016009 0.0292609725 0.363167018 0.313576579</_>
    <_>
      -4.79145336 -0.935345709 0.143725365 0.936530292 -0.964523494
      0.698054612 0.489904612 1.59968245 -1.10886574 0.627696872
      -0.708870053 -0.690491259 -0.358889282 -0.299492419 -0.623356462
      -0.109652996 -0.0263362937 0.581506491 0.00778343529 0.0702654645
